{"learner":{"attributes":{"best_iteration":"55","best_score":"0.5855436737376049"},"feature_names":[],"feature_types":[],"gradient_booster":{"model":{"gbtree_model_param":{"num_parallel_tree":"1","num_trees":"106"},"iteration_indptr":[0,1,2,3,4,5,6,7,8,9,10,11,12,13,14,15,16,17,18,19,20,21,22,23,24,25,26,27,28,29,30,31,32,33,34,35,36,37,38,39,40,41,42,43,44,45,46,47,48,49,50,51,52,53,54,55,56,57,58,59,60,61,62,63,64,65,66,67,68,69,70,71,72,73,74,75,76,77,78,79,80,81,82,83,84,85,86,87,88,89,90,91,92,93,94,95,96,97,98,99,100,101,102,103,104,105,106],"tree_info":[0,0,0,0,0,0,0,0,0,0,0,0,0,0,0,0,0,0,0,0,0,0,0,0,0,0,0,0,0,0,0,0,0,0,0,0,0,0,0,0,0,0,0,0,0,0,0,0,0,0,0,0,0,0,0,0,0,0,0,0,0,0,0,0,0,0,0,0,0,0,0,0,0,0,0,0,0,0,0,0,0,0,0,0,0,0,0,0,0,0,0,0,0,0,0,0,0,0,0,0,0,0,0,0,0,0],"trees":[{"base_weights":[-0E0,8.022993E-2,-5.432041E-1,-6.0622398E-2,-0E0],"categories":[],"categories_nodes":[],"categories_segments":[],"categories_sizes":[],"default_left":[0,0,0,0,0],"id":0,"left_children":[1,-1,3,-1,-1],"loss_changes":[4.7555458E1,0E0,8.002613E0,0E0,0E0],"parents":[2147483647,0,0,2,2],"right_children":[2,-1,4,-1,-1],"split_conditions":[-4.4111663E-1,8.022993E-2,-1.9574389E-1,-6.0622398E-2,-0E0],"split_indices":[18,0,3,0,0],"split_type":[0,0,0,0,0],"sum_hessian":[7.647694E1,2.5788733E1,5.06882E1,3.3569817E1,1.7118383E1],"tree_param":{"num_deleted":"0","num_feature":"25","num_nodes":"5","size_leaf_vector":"1"}},{"base_weights":[-0E0,5.1022154E-1,-5.979256E-2,7.951272E-2,8.167707E-3],"categories":[],"categories_nodes":[],"categories_segments":[],"categories_sizes":[],"default_left":[0,0,0,0,0],"id":1,"left_children":[1,3,-1,-1,-1],"loss_changes":[3.1657478E1,8.41895E0,0E0,0E0,0E0],"parents":[2147483647,0,0,1,1],"right_children":[2,4,-1,-1,-1],"split_conditions":[2.1523961E-1,-7.258042E-1,-5.979256E-2,7.951272E-2,8.167707E-3],"split_indices":[15,1,0,0,0],"split_type":[0,0,0,0,0],"sum_hessian":[7.338484E1,4.5031982E1,2.835286E1,1.5926068E1,2.9105913E1],"tree_param":{"num_deleted":"0","num_feature":"25","num_nodes":"5","size_leaf_vector":"1"}},{"base_weights":[-9.910618E-3,7.265741E-1,-5.9328437E-2,2.3635663E-2,8.5489094E-2],"categories":[],"categories_nodes":[],"categories_segments":[],"categories_sizes":[],"default_left":[0,0,0,0,0],"id":2,"left_children":[1,3,-1,-1,-1],"loss_changes":[4.665774E1,4.0450344E0,0E0,0E0,0E0],"parents":[2147483647,0,0,1,1],"right_children":[2,4,-1,-1,-1],"split_conditions":[1.1958677E-2,9.500627E-1,-5.9328437E-2,2.3635663E-2,8.5489094E-2],"split_indices":[11,0,0,0,0],"split_type":[0,0,0,0,0],"sum_hessian":[7.667684E1,3.8672577E1,3.800426E1,2.312845E1,1.55441265E1],"tree_param":{"num_deleted":"0","num_feature":"25","num_nodes":"5","size_leaf_vector":"1"}},{"base_weights":[-3.1481378E-2,5.5053055E-2,-5.326983E-2],"categories":[],"categories_nodes":[],"categories_segments":[],"categories_sizes":[],"default_left":[0,0,0],"id":3,"left_children":[1,-1,-1],"loss_changes":[4.3422134E1,0E0,0E0],"parents":[2147483647,0,0],"right_children":[2,-1,-1],"split_conditions":[-1.500828E-1,5.5053055E-2,-5.326983E-2],"split_indices":[9,0,0],"split_type":[0,0,0],"sum_hessian":[7.8686676E1,3.5851685E1,4.283499E1],"tree_param":{"num_deleted":"0","num_feature":"25","num_nodes":"3","size_leaf_vector":"1"}},{"base_weights":[-0E0,7.1934086E-1,-5.649258E-2,2.363776E-2,6.739567E-2],"categories":[],"categories_nodes":[],"categories_segments":[],"categories_sizes":[],"default_left":[0,0,0,0,0],"id":4,"left_children":[1,3,-1,-1,-1],"loss_changes":[4.4863808E1,7.48724E-1,0E0,0E0,0E0],"parents":[2147483647,0,0,1,1],"right_children":[2,4,-1,-1,-1],"split_conditions":[-3.1907894E-2,6.0373455E-1,-5.649258E-2,2.363776E-2,6.739567E-2],"split_indices":[15,2,0,0,0],"split_type":[0,0,0,0,0],"sum_hessian":[7.8578064E1,4.057977E1,3.7998295E1,1.7071404E1,2.3508366E1],"tree_param":{"num_deleted":"0","num_feature":"25","num_nodes":"5","size_leaf_vector":"1"}},{"base_weights":[3.443831E-2,6.3825434E-1,-4.93266E-2,7.217003E-2,2.226083E-2],"categories":[],"categories_nodes":[],"categories_segments":[],"categories_sizes":[],"default_left":[0,0,0,0,0],"id":5,"left_children":[1,3,-1,-1,-1],"loss_changes":[3.3372726E1,2.4112244E0,0E0,0E0,0E0],"parents":[2147483647,0,0,1,1],"right_children":[2,4,-1,-1,-1],"split_conditions":[5.9662044E-2,-7.697228E-1,-4.93266E-2,7.217003E-2,2.226083E-2],"split_indices":[20,18,0,0,0],"split_type":[0,0,0,0,0],"sum_hessian":[7.5755684E1,4.189392E1,3.3861763E1,1.7155632E1,2.4738289E1],"tree_param":{"num_deleted":"0","num_feature":"25","num_nodes":"5","size_leaf_vector":"1"}},{"base_weights":[-6.479067E-3,3.7486133E-1,-5.8311082E-2,4.8631527E-2,1.7654423E-1,-6.4075884E-4,3.345124E-2],"categories":[],"categories_nodes":[],"categories_segments":[],"categories_sizes":[],"default_left":[0,0,0,0,0,0,0],"id":6,"left_children":[1,3,-1,-1,5,-1,-1],"loss_changes":[2.4377638E1,1.3926048E0,0E0,0E0,2.5359976E0,0E0,0E0],"parents":[2147483647,0,0,1,1,4,4],"right_children":[2,4,-1,-1,6,-1,-1],"split_conditions":[2.4873044E-1,-7.934012E-1,-5.8311082E-2,4.8631527E-2,-3.0532083E-1,-6.4075884E-4,3.345124E-2],"split_indices":[11,1,0,0,18,0,0],"split_type":[0,0,0,0,0,0,0],"sum_hessian":[7.651921E1,5.0604965E1,2.591425E1,1.6048914E1,3.455605E1,1.820452E1,1.635153E1],"tree_param":{"num_deleted":"0","num_feature":"25","num_nodes":"7","size_leaf_vector":"1"}},{"base_weights":[-0E0,4.641379E-1,-5.8971595E-2,7.4593045E-2,1.1725552E-1,-0E0,2.031441E-2],"categories":[],"categories_nodes":[],"categories_segments":[],"categories_sizes":[],"default_left":[0,0,0,0,0,0,0],"id":7,"left_children":[1,3,-1,-1,5,-1,-1],"loss_changes":[2.8754963E1,7.1237516E0,0E0,0E0,7.992535E-1,0E0,0E0],"parents":[2147483647,0,0,1,1,4,4],"right_children":[2,4,-1,-1,6,-1,-1],"split_conditions":[2.5565845E-1,-9.3319017E-1,-5.8971595E-2,7.4593045E-2,-4.3836156E-1,-0E0,2.031441E-2],"split_indices":[11,13,0,0,10,0,0],"split_type":[0,0,0,0,0,0,0],"sum_hessian":[7.414792E1,4.6845516E1,2.7302404E1,1.5263678E1,3.158184E1,1.6496313E1,1.5085527E1],"tree_param":{"num_deleted":"0","num_feature":"25","num_nodes":"7","size_leaf_vector":"1"}},{"base_weights":[-0E0,6.396234E-2,-3.4630433E-1,-0E0,-6.0089555E-2,-3.3158444E-2,2.4787623E-2],"categories":[],"categories_nodes":[],"categories_segments":[],"categories_sizes":[],"default_left":[0,0,0,0,0,0,0],"id":8,"left_children":[1,-1,3,5,-1,-1,-1],"loss_changes":[2.4785423E1,0E0,8.199615E0,5.8654003E0,0E0,0E0,0E0],"parents":[2147483647,0,0,2,2,3,3],"right_children":[2,-1,4,6,-1,-1,-1],"split_conditions":[-7.069707E-1,6.396234E-2,5.5007404E-1,-2.2353265E-1,-6.0089555E-2,-3.3158444E-2,2.4787623E-2],"split_indices":[4,0,10,18,0,0,0],"split_type":[0,0,0,0,0,0,0],"sum_hessian":[7.867436E1,2.230894E1,5.6365417E1,3.4897423E1,2.1467997E1,1.6411379E1,1.8486042E1],"tree_param":{"num_deleted":"0","num_feature":"25","num_nodes":"7","size_leaf_vector":"1"}},{"base_weights":[-8.183955E-2,3.266533E-1,-4.6930343E-2,-0E0,4.0626876E-2],"categories":[],"categories_nodes":[],"categories_segments":[],"categories_sizes":[],"default_left":[0,0,0,0,0],"id":9,"left_children":[1,3,-1,-1,-1],"loss_changes":[1.8065514E1,3.6419516E0,0E0,0E0,0E0],"parents":[2147483647,0,0,1,1],"right_children":[2,4,-1,-1,-1],"split_conditions":[3.09737E-2,-8.7424845E-1,-4.6930343E-2,-0E0,4.0626876E-2],"split_indices":[20,15,0,0,0],"split_type":[0,0,0,0,0],"sum_hessian":[7.499963E1,4.1784885E1,3.321475E1,1.5777974E1,2.6006912E1],"tree_param":{"num_deleted":"0","num_feature":"25","num_nodes":"5","size_leaf_vector":"1"}},{"base_weights":[-0E0,-5.2773133E-2,3.158712E-1,3.9061643E-2,1.6797177E-3],"categories":[],"categories_nodes":[],"categories_segments":[],"categories_sizes":[],"default_left":[0,0,0,0,0],"id":10,"left_children":[1,-1,3,-1,-1],"loss_changes":[1.7195646E1,0E0,2.4100184E0,0E0,0E0],"parents":[2147483647,0,0,2,2],"right_children":[2,-1,4,-1,-1],"split_conditions":[-3.2819012E-1,-5.2773133E-2,-4.7258013E-1,3.9061643E-2,1.6797177E-3],"split_indices":[14,0,18,0,0],"split_type":[0,0,0,0,0],"sum_hessian":[7.356123E1,2.1761724E1,5.1799507E1,2.6289858E1,2.5509651E1],"tree_param":{"num_deleted":"0","num_feature":"25","num_nodes":"5","size_leaf_vector":"1"}},{"base_weights":[3.927465E-2,4.4369993E-1,-3.933439E-2,5.0423905E-2,1.1878393E-2],"categories":[],"categories_nodes":[],"categories_segments":[],"categories_sizes":[],"default_left":[0,0,0,0,0],"id":11,"left_children":[1,3,-1,-1,-1],"loss_changes":[1.7511246E1,1.581068E0,0E0,0E0,0E0],"parents":[2147483647,0,0,1,1],"right_children":[2,4,-1,-1,-1],"split_conditions":[5.9662044E-2,-6.759147E-1,-3.933439E-2,5.0423905E-2,1.1878393E-2],"split_indices":[20,9,0,0,0],"split_type":[0,0,0,0,0],"sum_hessian":[7.320412E1,4.4601574E1,2.8602545E1,2.0067715E1,2.453386E1],"tree_param":{"num_deleted":"0","num_feature":"25","num_nodes":"5","size_leaf_vector":"1"}},{"base_weights":[-7.483417E-2,3.993628E-2,-2.830182E-1,1.705855E-3,-3.4848243E-2],"categories":[],"categories_nodes":[],"categories_segments":[],"categories_sizes":[],"default_left":[0,0,0,0,0],"id":12,"left_children":[1,-1,3,-1,-1],"loss_changes":[9.574402E0,0E0,4.118028E0,0E0,0E0],"parents":[2147483647,0,0,2,2],"right_children":[2,-1,4,-1,-1],"split_conditions":[-8.9199954E-1,3.993628E-2,-2.922504E-1,1.705855E-3,-3.4848243E-2],"split_indices":[13,0,4,0,0],"split_type":[0,0,0,0,0],"sum_hessian":[7.440267E1,1.626778E1,5.813489E1,1.9345665E1,3.8789227E1],"tree_param":{"num_deleted":"0","num_feature":"25","num_nodes":"5","size_leaf_vector":"1"}},{"base_weights":[6.9990315E-2,-4.076765E-2,3.4949154E-1,4.7403354E-2,1.4691444E-1,-4.688703E-3,3.1161722E-2],"categories":[],"categories_nodes":[],"categories_segments":[],"categories_sizes":[],"default_left":[0,0,0,0,0,0,0],"id":13,"left_children":[1,-1,3,-1,5,-1,-1],"loss_changes":[1.2956481E1,0E0,1.7750764E0,0E0,2.7412412E0,0E0,0E0],"parents":[2147483647,0,0,2,2,4,4],"right_children":[2,-1,4,-1,6,-1,-1],"split_conditions":[-4.511457E-1,-4.076765E-2,-8.865246E-1,4.7403354E-2,-2.2353265E-1,-4.688703E-3,3.1161722E-2],"split_indices":[6,0,17,0,18,0,0],"split_type":[0,0,0,0,0,0,0],"sum_hessian":[7.305132E1,2.046991E1,5.2581413E1,1.6950787E1,3.5630627E1,1.7630753E1,1.7999874E1],"tree_param":{"num_deleted":"0","num_feature":"25","num_nodes":"7","size_leaf_vector":"1"}},{"base_weights":[-0E0,5.4055084E-2,-2.943156E-1,-0E0,-4.484168E-2],"categories":[],"categories_nodes":[],"categories_segments":[],"categories_sizes":[],"default_left":[0,0,0,0,0],"id":14,"left_children":[1,-1,3,-1,-1],"loss_changes":[1.5193396E1,0E0,5.377147E0,0E0,0E0],"parents":[2147483647,0,0,2,2],"right_children":[2,-1,4,-1,-1],"split_conditions":[-6.356213E-1,5.4055084E-2,5.9662044E-2,-0E0,-4.484168E-2],"split_indices":[13,0,20,0,0],"split_type":[0,0,0,0,0],"sum_hessian":[6.962701E1,1.8275675E1,5.135133E1,2.5674868E1,2.5676464E1],"tree_param":{"num_deleted":"0","num_feature":"25","num_nodes":"5","size_leaf_vector":"1"}},{"base_weights":[1.922529E-2,-2.836085E-2,2.630521E-1,3.3503763E-2,-0E0],"categories":[],"categories_nodes":[],"categories_segments":[],"categories_sizes":[],"default_left":[0,0,0,0,0],"id":15,"left_children":[1,-1,3,-1,-1],"loss_changes":[7.367599E0,0E0,2.2405996E0,0E0,0E0],"parents":[2147483647,0,0,2,2],"right_children":[2,-1,4,-1,-1],"split_conditions":[-1.9574389E-1,-2.836085E-2,-5.835547E-1,3.3503763E-2,-0E0],"split_indices":[3,0,9,0,0],"split_type":[0,0,0,0,0],"sum_hessian":[7.373638E1,2.5091171E1,4.864521E1,2.6458801E1,2.218641E1],"tree_param":{"num_deleted":"0","num_feature":"25","num_nodes":"5","size_leaf_vector":"1"}},{"base_weights":[2.8896002E-2,-5.1616594E-2,3.5013765E-1,3.790611E-2,3.1974113E-3],"categories":[],"categories_nodes":[],"categories_segments":[],"categories_sizes":[],"default_left":[0,0,0,0,0],"id":16,"left_children":[1,-1,3,-1,-1],"loss_changes":[1.6968082E1,0E0,1.7211003E0,0E0,0E0],"parents":[2147483647,0,0,2,2],"right_children":[2,-1,4,-1,-1],"split_conditions":[-4.4481915E-1,-5.1616594E-2,7.4281245E-1,3.790611E-2,3.1974113E-3],"split_indices":[6,0,14,0,0],"split_type":[0,0,0,0,0],"sum_hessian":[7.175383E1,1.9941628E1,5.1812202E1,2.9973227E1,2.1838978E1],"tree_param":{"num_deleted":"0","num_feature":"25","num_nodes":"5","size_leaf_vector":"1"}},{"base_weights":[-3.1262652E-3,2.1264914E-1,-3.3762792E-1,-0E0,2.6357247E-2,-2.2186947E-3,-3.7916563E-2],"categories":[],"categories_nodes":[],"categories_segments":[],"categories_sizes":[],"default_left":[0,0,0,0,0,0,0],"id":17,"left_children":[1,3,5,-1,-1,-1,-1],"loss_changes":[5.8219194E0,1.6814003E0,8.9804864E-1,0E0,0E0,0E0,0E0],"parents":[2147483647,0,0,1,1,2,2],"right_children":[2,4,6,-1,-1,-1,-1],"split_conditions":[-4.0264033E-2,-8.8337314E-1,5.694108E-1,-0E0,2.6357247E-2,-2.2186947E-3,-3.7916563E-2],"split_indices":[15,11,10,0,0,0,0],"split_type":[0,0,0,0,0,0,0],"sum_hessian":[7.440879E1,4.27776E1,3.163119E1,1.5123433E1,2.7654165E1,1.535792E1,1.627327E1],"tree_param":{"num_deleted":"0","num_feature":"25","num_nodes":"7","size_leaf_vector":"1"}},{"base_weights":[9.460869E-2,6.1230737E-1,-2.8755614E-1,1.4354985E-2,6.295767E-2,-0E0,-4.3522064E-2],"categories":[],"categories_nodes":[],"categories_segments":[],"categories_sizes":[],"default_left":[0,0,0,0,0,0,0],"id":18,"left_children":[1,3,5,-1,-1,-1,-1],"loss_changes":[1.5588771E1,1.4210491E0,3.3420599E0,0E0,0E0,0E0,0E0],"parents":[2147483647,0,0,1,1,2,2],"right_children":[2,4,6,-1,-1,-1,-1],"split_conditions":[-3.2676676E-1,7.874832E-1,3.8933948E-1,1.4354985E-2,6.295767E-2,-0E0,-4.3522064E-2],"split_indices":[4,0,20,0,0,0,0],"split_type":[0,0,0,0,0,0,0],"sum_hessian":[7.286682E1,3.2232983E1,4.063384E1,1.51090555E1,1.7123926E1,2.240854E1,1.8225296E1],"tree_param":{"num_deleted":"0","num_feature":"25","num_nodes":"7","size_leaf_vector":"1"}},{"base_weights":[-0E0,3.7401933E-2,-1.5706784E-1,-0E0,-2.9993895E-2,1.4694055E-2,-1.3393597E-2],"categories":[],"categories_nodes":[],"categories_segments":[],"categories_sizes":[],"default_left":[0,0,0,0,0,0,0],"id":19,"left_children":[1,-1,3,5,-1,-1,-1],"loss_changes":[6.036809E0,0E0,2.495935E0,1.313122E0,0E0,0E0,0E0],"parents":[2147483647,0,0,2,2,3,3],"right_children":[2,-1,4,6,-1,-1,-1],"split_conditions":[-8.2502466E-1,3.7401933E-2,2.3228312E-1,4.3145767E-1,-2.9993895E-2,1.4694055E-2,-1.3393597E-2],"split_indices":[1,0,11,0,0,0,0],"split_type":[0,0,0,0,0,0,0],"sum_hessian":[7.1754036E1,1.653591E1,5.521813E1,3.3001484E1,2.2216644E1,1.757078E1,1.5430703E1],"tree_param":{"num_deleted":"0","num_feature":"25","num_nodes":"7","size_leaf_vector":"1"}},{"base_weights":[-2.4122749E-2,3.253428E-2,-2.3414695E-1,-2.8499046E-2,-1.7099079E-3],"categories":[],"categories_nodes":[],"categories_segments":[],"categories_sizes":[],"default_left":[0,0,0,0,0],"id":20,"left_children":[1,-1,3,-1,-1],"loss_changes":[6.746171E0,0E0,9.935372E-1,0E0,0E0],"parents":[2147483647,0,0,2,2],"right_children":[2,-1,4,-1,-1],"split_conditions":[-7.049476E-1,3.253428E-2,2.9297786E-2,-2.8499046E-2,-1.7099079E-3],"split_indices":[1,0,18,0,0],"split_type":[0,0,0,0,0],"sum_hessian":[6.922653E1,1.8715343E1,5.0511185E1,2.4414017E1,2.6097168E1],"tree_param":{"num_deleted":"0","num_feature":"25","num_nodes":"5","size_leaf_vector":"1"}},{"base_weights":[-8.825993E-2,1.7151737E-1,-3.542172E-2,2.7209518E-2,-0E0],"categories":[],"categories_nodes":[],"categories_segments":[],"categories_sizes":[],"default_left":[0,0,0,0,0],"id":21,"left_children":[1,3,-1,-1,-1],"loss_changes":[7.7857857E0,1.2853997E0,0E0,0E0,0E0],"parents":[2147483647,0,0,1,1],"right_children":[2,4,-1,-1,-1],"split_conditions":[-2.2795292E-2,-6.723783E-1,-3.542172E-2,2.7209518E-2,-0E0],"split_indices":[19,13,0,0,0],"split_type":[0,0,0,0,0],"sum_hessian":[6.929382E1,3.9680088E1,2.9613737E1,1.6940304E1,2.2739782E1],"tree_param":{"num_deleted":"0","num_feature":"25","num_nodes":"5","size_leaf_vector":"1"}},{"base_weights":[-0E0,-2.4667528E-2,1.7078629E-1,-0E0,2.388071E-2],"categories":[],"categories_nodes":[],"categories_segments":[],"categories_sizes":[],"default_left":[0,0,0,0,0],"id":22,"left_children":[1,-1,3,-1,-1],"loss_changes":[3.8077755E0,0E0,1.4876133E0,0E0,0E0],"parents":[2147483647,0,0,2,2],"right_children":[2,-1,4,-1,-1],"split_conditions":[-1.5071051E-1,-2.4667528E-2,-7.6932544E-1,-0E0,2.388071E-2],"split_indices":[21,0,15,0,0],"split_type":[0,0,0,0,0],"sum_hessian":[6.191114E1,2.1709759E1,4.020138E1,1.5671753E1,2.452963E1],"tree_param":{"num_deleted":"0","num_feature":"25","num_nodes":"5","size_leaf_vector":"1"}},{"base_weights":[-1.1820323E-1,6.923616E-2,-3.1807993E-2,-2.3190442E-2,2.8185524E-2],"categories":[],"categories_nodes":[],"categories_segments":[],"categories_sizes":[],"default_left":[0,0,0,0,0],"id":23,"left_children":[1,3,-1,-1,-1],"loss_changes":[4.55589E0,5.1179686E0,0E0,0E0,0E0],"parents":[2147483647,0,0,1,1],"right_children":[2,4,-1,-1,-1],"split_conditions":[-9.6266754E-2,-8.7424845E-1,-3.1807993E-2,-2.3190442E-2,2.8185524E-2],"split_indices":[15,15,0,0,0],"split_type":[0,0,0,0,0],"sum_hessian":[6.617824E1,3.8920784E1,2.7257452E1,1.51783085E1,2.3742476E1],"tree_param":{"num_deleted":"0","num_feature":"25","num_nodes":"5","size_leaf_vector":"1"}},{"base_weights":[-0E0,2.1647116E-2,-1.9395082E-1,-2.5806451E-2,6.6130905E-4],"categories":[],"categories_nodes":[],"categories_segments":[],"categories_sizes":[],"default_left":[0,0,0,0,0],"id":24,"left_children":[1,-1,3,-1,-1],"loss_changes":[4.054145E0,0E0,1.9635022E0,0E0,0E0],"parents":[2147483647,0,0,2,2],"right_children":[2,-1,4,-1,-1],"split_conditions":[-4.202568E-1,2.1647116E-2,1.8900204E-1,-2.5806451E-2,6.6130905E-4],"split_indices":[13,0,2,0,0],"split_type":[0,0,0,0,0],"sum_hessian":[6.988903E1,2.5648968E1,4.4240063E1,2.8899225E1,1.5340839E1],"tree_param":{"num_deleted":"0","num_feature":"25","num_nodes":"5","size_leaf_vector":"1"}},{"base_weights":[-7.460557E-2,-2.2166406E-1,2.1599429E-2,-3.308814E-2,-7.067497E-2,1.0928263E-2,-3.2959417E-2],"categories":[],"categories_nodes":[],"categories_segments":[],"categories_sizes":[],"default_left":[0,0,0,0,0,0,0],"id":25,"left_children":[1,3,-1,-1,5,-1,-1],"loss_changes":[3.73883E0,9.440255E-1,0E0,0E0,3.6829839E0,0E0,0E0],"parents":[2147483647,0,0,1,1,4,4],"right_children":[2,4,-1,-1,6,-1,-1],"split_conditions":[9.500627E-1,-3.5633117E-1,2.1599429E-2,-3.308814E-2,5.2596265E-1,1.0928263E-2,-3.2959417E-2],"split_indices":[0,24,0,0,9,0,0],"split_type":[0,0,0,0,0,0,0],"sum_hessian":[6.775405E1,5.1852688E1,1.590136E1,1.5341442E1,3.6511246E1,2.1070412E1,1.5440835E1],"tree_param":{"num_deleted":"0","num_feature":"25","num_nodes":"7","size_leaf_vector":"1"}},{"base_weights":[6.2097877E-2,4.1917093E-2,-1.3721919E-1,-0E0,-1.9660437E-2],"categories":[],"categories_nodes":[],"categories_segments":[],"categories_sizes":[],"default_left":[0,0,0,0,0],"id":26,"left_children":[1,-1,3,-1,-1],"loss_changes":[7.8996863E0,0E0,1.1285863E0,0E0,0E0],"parents":[2147483647,0,0,2,2],"right_children":[2,-1,4,-1,-1],"split_conditions":[-6.356213E-1,4.1917093E-2,-3.1907894E-2,-0E0,-1.9660437E-2],"split_indices":[13,0,15,0,0],"split_type":[0,0,0,0,0],"sum_hessian":[6.9199554E1,2.0993563E1,4.820599E1,2.036285E1,2.784314E1],"tree_param":{"num_deleted":"0","num_feature":"25","num_nodes":"5","size_leaf_vector":"1"}},{"base_weights":[-0E0,2.3422545E-1,-2.3542395E-2,-0E0,3.0483354E-2],"categories":[],"categories_nodes":[],"categories_segments":[],"categories_sizes":[],"default_left":[0,0,0,0,0],"id":27,"left_children":[1,3,-1,-1,-1],"loss_changes":[5.4252844E0,2.3140872E0,0E0,0E0,0E0],"parents":[2147483647,0,0,1,1],"right_children":[2,4,-1,-1,-1],"split_conditions":[-7.1154E-2,-8.7424845E-1,-2.3542395E-2,-0E0,3.0483354E-2],"split_indices":[15,15,0,0,0],"split_type":[0,0,0,0,0],"sum_hessian":[7.032699E1,4.183301E1,2.8493973E1,1.5591649E1,2.6241364E1],"tree_param":{"num_deleted":"0","num_feature":"25","num_nodes":"5","size_leaf_vector":"1"}},{"base_weights":[-8.530932E-3,1.1678122E-1,-1.742922E-1,-2.3575902E-3,2.4773289E-2,-3.096971E-2,1.9414946E-3],"categories":[],"categories_nodes":[],"categories_segments":[],"categories_sizes":[],"default_left":[0,0,0,0,0,0,0],"id":28,"left_children":[1,3,5,-1,-1,-1,-1],"loss_changes":[1.5446718E0,1.6011833E0,2.3528194E0,0E0,0E0,0E0,0E0],"parents":[2147483647,0,0,1,1,2,2],"right_children":[2,4,6,-1,-1,-1,-1],"split_conditions":[-3.3718395E-1,-7.6792085E-1,4.551473E-1,-2.3575902E-3,2.4773289E-2,-3.096971E-2,1.9414946E-3],"split_indices":[20,24,17,0,0,0,0],"split_type":[0,0,0,0,0,0,0],"sum_hessian":[6.6512436E1,3.2794228E1,3.371821E1,1.604974E1,1.6744488E1,1.7943575E1,1.5774635E1],"tree_param":{"num_deleted":"0","num_feature":"25","num_nodes":"7","size_leaf_vector":"1"}},{"base_weights":[6.878829E-3,-1.1343301E-2,1.0244986E-1,2.500476E-2,-6.0766917E-3],"categories":[],"categories_nodes":[],"categories_segments":[],"categories_sizes":[],"default_left":[0,0,0,0,0],"id":29,"left_children":[1,-1,3,-1,-1],"loss_changes":[1.0209614E0,0E0,2.6508198E0,0E0,0E0],"parents":[2147483647,0,0,2,2],"right_children":[2,-1,4,-1,-1],"split_conditions":[-7.1932423E-1,-1.1343301E-2,9.1088384E-2,2.500476E-2,-6.0766917E-3],"split_indices":[11,0,13,0,0],"split_type":[0,0,0,0,0],"sum_hessian":[6.8573654E1,1.9163233E1,4.9410423E1,2.4875952E1,2.4534472E1],"tree_param":{"num_deleted":"0","num_feature":"25","num_nodes":"5","size_leaf_vector":"1"}},{"base_weights":[-1.7169435E-2,5.2480202E-2,-1.8815765E-2,-1.3072672E-2,2.0024173E-2],"categories":[],"categories_nodes":[],"categories_segments":[],"categories_sizes":[],"default_left":[0,0,0,0,0],"id":30,"left_children":[1,3,-1,-1,-1],"loss_changes":[1.4691813E0,2.680604E0,0E0,0E0,0E0],"parents":[2147483647,0,0,1,1],"right_children":[2,4,-1,-1,-1],"split_conditions":[2.5565845E-1,-6.671992E-1,-1.8815765E-2,-1.3072672E-2,2.0024173E-2],"split_indices":[11,11,0,0,0],"split_type":[0,0,0,0,0],"sum_hessian":[6.711514E1,4.774909E1,1.9366056E1,1.9901058E1,2.784803E1],"tree_param":{"num_deleted":"0","num_feature":"25","num_nodes":"5","size_leaf_vector":"1"}},{"base_weights":[5.441113E-3,1.2984258E-1,-1.564088E-2,-0E0,2.585052E-2],"categories":[],"categories_nodes":[],"categories_segments":[],"categories_sizes":[],"default_left":[0,0,0,0,0],"id":31,"left_children":[1,3,-1,-1,-1],"loss_changes":[1.741401E0,1.6829367E0,0E0,0E0,0E0],"parents":[2147483647,0,0,1,1],"right_children":[2,4,-1,-1,-1],"split_conditions":[2.4019314E-1,-4.1871563E-1,-1.564088E-2,-0E0,2.585052E-2],"split_indices":[9,10,0,0,0],"split_type":[0,0,0,0,0],"sum_hessian":[6.600002E1,4.691556E1,1.908446E1,2.7965012E1,1.8950552E1],"tree_param":{"num_deleted":"0","num_feature":"25","num_nodes":"5","size_leaf_vector":"1"}},{"base_weights":[-0E0,2.3980582E-2,-2.1860115E-1,-2.987188E-2,-0E0],"categories":[],"categories_nodes":[],"categories_segments":[],"categories_sizes":[],"default_left":[0,0,0,0,0],"id":32,"left_children":[1,-1,3,-1,-1],"loss_changes":[5.0344954E0,0E0,1.3303344E0,0E0,0E0],"parents":[2147483647,0,0,2,2],"right_children":[2,-1,4,-1,-1],"split_conditions":[-5.137216E-1,2.3980582E-2,4.1768335E-2,-2.987188E-2,-0E0],"split_indices":[15,0,18,0,0],"split_type":[0,0,0,0,0],"sum_hessian":[6.848116E1,2.6571377E1,4.1909786E1,1.9412144E1,2.2497643E1],"tree_param":{"num_deleted":"0","num_feature":"25","num_nodes":"5","size_leaf_vector":"1"}},{"base_weights":[-1.7242853E-1,-3.342768E-2,-5.4135267E-2,-2.2444384E-1,1.748075E-2,-3.4128673E-2,-0E0],"categories":[],"categories_nodes":[],"categories_segments":[],"categories_sizes":[],"default_left":[0,0,0,0,0,0,0],"id":33,"left_children":[1,-1,3,5,-1,-1,-1],"loss_changes":[1.4763625E0,0E0,2.8026972E0,1.9054737E0,0E0,0E0,0E0],"parents":[2147483647,0,0,2,2,3,3],"right_children":[2,-1,4,6,-1,-1,-1],"split_conditions":[-8.7424845E-1,-3.342768E-2,4.1110277E-1,1.7378542E-1,1.748075E-2,-3.4128673E-2,-0E0],"split_indices":[15,0,2,9,0,0,0],"split_type":[0,0,0,0,0,0,0],"sum_hessian":[6.866847E1,1.5098394E1,5.357008E1,3.737368E1,1.6196398E1,1.663973E1,2.0733952E1],"tree_param":{"num_deleted":"0","num_feature":"25","num_nodes":"7","size_leaf_vector":"1"}},{"base_weights":[-8.3676286E-2,-2.729916E-1,2.3330618E-2,-4.095175E-2,-4.074836E-3],"categories":[],"categories_nodes":[],"categories_segments":[],"categories_sizes":[],"default_left":[0,0,0,0,0],"id":34,"left_children":[1,3,-1,-1,-1],"loss_changes":[4.8449926E0,1.8117542E0,0E0,0E0,0E0],"parents":[2147483647,0,0,1,1],"right_children":[2,4,-1,-1,-1],"split_conditions":[8.337463E-1,-2.7614927E-1,2.3330618E-2,-4.095175E-2,-4.074836E-3],"split_indices":[21,18,0,0,0],"split_type":[0,0,0,0,0],"sum_hessian":[6.1456387E1,4.4671764E1,1.678462E1,1.5309516E1,2.9362247E1],"tree_param":{"num_deleted":"0","num_feature":"25","num_nodes":"5","size_leaf_vector":"1"}},{"base_weights":[9.773394E-3,2.260299E-2,-5.5426914E-2,-1.6188426E-2,5.4077758E-3],"categories":[],"categories_nodes":[],"categories_segments":[],"categories_sizes":[],"default_left":[0,0,0,0,0],"id":35,"left_children":[1,-1,3,-1,-1],"loss_changes":[1.728418E0,0E0,1.357447E0,0E0,0E0],"parents":[2147483647,0,0,2,2],"right_children":[2,-1,4,-1,-1],"split_conditions":[-8.790056E-1,2.260299E-2,4.005221E-3,-1.6188426E-2,5.4077758E-3],"split_indices":[13,0,10,0,0],"split_type":[0,0,0,0,0],"sum_hessian":[6.649402E1,1.5245709E1,5.1248306E1,2.7462969E1,2.3785337E1],"tree_param":{"num_deleted":"0","num_feature":"25","num_nodes":"5","size_leaf_vector":"1"}},{"base_weights":[4.5486607E-2,2.7341554E-1,-3.323358E-2,3.2683108E-2,2.3942208E-3],"categories":[],"categories_nodes":[],"categories_segments":[],"categories_sizes":[],"default_left":[0,0,0,0,0],"id":36,"left_children":[1,3,-1,-1,-1],"loss_changes":[7.4738135E0,1.2039275E0,0E0,0E0,0E0],"parents":[2147483647,0,0,1,1],"right_children":[2,4,-1,-1,-1],"split_conditions":[2.3192737E-1,5.978177E-1,-3.323358E-2,3.2683108E-2,2.3942208E-3],"split_indices":[7,23,0,0,0],"split_type":[0,0,0,0,0],"sum_hessian":[6.531569E1,4.736079E1,1.79549E1,2.334216E1,2.4018631E1],"tree_param":{"num_deleted":"0","num_feature":"25","num_nodes":"5","size_leaf_vector":"1"}},{"base_weights":[8.850769E-2,2.8418945E-2,-1.9341135E-2,-1.6251702E-2,8.641568E-3],"categories":[],"categories_nodes":[],"categories_segments":[],"categories_sizes":[],"default_left":[0,0,0,0,0],"id":37,"left_children":[1,-1,3,-1,-1],"loss_changes":[2.717243E0,0E0,1.4772651E0,0E0,0E0],"parents":[2147483647,0,0,2,2],"right_children":[2,-1,4,-1,-1],"split_conditions":[-6.356213E-1,2.8418945E-2,4.005221E-3,-1.6251702E-2,8.641568E-3],"split_indices":[13,0,10,0,0],"split_type":[0,0,0,0,0],"sum_hessian":[6.567622E1,2.0333569E1,4.5342655E1,2.2601093E1,2.274156E1],"tree_param":{"num_deleted":"0","num_feature":"25","num_nodes":"5","size_leaf_vector":"1"}},{"base_weights":[-5.2470375E-2,-1.8250483E-1,1.4901822E-2,-4.335246E-2,-0E0,2.876358E-2,-2.2109104E-2],"categories":[],"categories_nodes":[],"categories_segments":[],"categories_sizes":[],"default_left":[0,0,0,0,0,0,0],"id":38,"left_children":[1,3,-1,-1,5,-1,-1],"loss_changes":[2.2982407E0,4.063437E0,0E0,0E0,4.3217115E0,0E0,0E0],"parents":[2147483647,0,0,1,1,4,4],"right_children":[2,4,-1,-1,6,-1,-1],"split_conditions":[7.7521485E-1,-3.0532083E-1,1.4901822E-2,-4.335246E-2,2.5565845E-1,2.876358E-2,-2.2109104E-2],"split_indices":[0,18,0,0,11,0,0],"split_type":[0,0,0,0,0,0,0],"sum_hessian":[6.700607E1,4.86664E1,1.8339674E1,1.5129254E1,3.3537148E1,1.5289753E1,1.8247395E1],"tree_param":{"num_deleted":"0","num_feature":"25","num_nodes":"7","size_leaf_vector":"1"}},{"base_weights":[-0E0,1.6073538E-1,-1.1813317E-2,-6.5637426E-3,3.382432E-2],"categories":[],"categories_nodes":[],"categories_segments":[],"categories_sizes":[],"default_left":[0,0,0,0,0],"id":39,"left_children":[1,3,-1,-1,-1],"loss_changes":[1.7034769E0,3.29488E0,0E0,0E0,0E0],"parents":[2147483647,0,0,1,1],"right_children":[2,4,-1,-1,-1],"split_conditions":[-1.8510215E-1,-7.859562E-1,-1.1813317E-2,-6.5637426E-3,3.382432E-2],"split_indices":[11,15,0,0,0],"split_type":[0,0,0,0,0],"sum_hessian":[6.3100273E1,3.441176E1,2.8688515E1,1.6421482E1,1.7990276E1],"tree_param":{"num_deleted":"0","num_feature":"25","num_nodes":"5","size_leaf_vector":"1"}},{"base_weights":[2.0525407E-2,1.4297512E-1,-6.298754E-3,-9.279594E-4,3.132828E-2],"categories":[],"categories_nodes":[],"categories_segments":[],"categories_sizes":[],"default_left":[0,0,0,0,0],"id":40,"left_children":[1,3,-1,-1,-1],"loss_changes":[9.316117E-1,2.246348E0,0E0,0E0,0E0],"parents":[2147483647,0,0,1,1],"right_children":[2,4,-1,-1,-1],"split_conditions":[-1.460098E-1,-7.2108763E-1,-6.298754E-3,-9.279594E-4,3.132828E-2],"split_indices":[15,19,0,0,0],"split_type":[0,0,0,0,0],"sum_hessian":[6.177968E1,3.513831E1,2.664137E1,2.0019228E1,1.51190815E1],"tree_param":{"num_deleted":"0","num_feature":"25","num_nodes":"5","size_leaf_vector":"1"}},{"base_weights":[1.062285E-1,2.2081986E-2,-1.697311E-2],"categories":[],"categories_nodes":[],"categories_segments":[],"categories_sizes":[],"default_left":[0,0,0],"id":41,"left_children":[1,-1,-1],"loss_changes":[4.5767007E0,0E0,0E0],"parents":[2147483647,0,0],"right_children":[2,-1,-1],"split_conditions":[5.9662044E-2,2.2081986E-2,-1.697311E-2],"split_indices":[20,0,0],"split_type":[0,0,0],"sum_hessian":[6.642002E1,4.5412216E1,2.1007807E1],"tree_param":{"num_deleted":"0","num_feature":"25","num_nodes":"3","size_leaf_vector":"1"}},{"base_weights":[-0E0,-1.475183E-2,9.5071435E-2,2.8199311E-2,-1.7454444E-3],"categories":[],"categories_nodes":[],"categories_segments":[],"categories_sizes":[],"default_left":[0,0,0,0,0],"id":42,"left_children":[1,-1,3,-1,-1],"loss_changes":[1.1145281E0,0E0,2.2254705E0,0E0,0E0],"parents":[2147483647,0,0,2,2],"right_children":[2,-1,4,-1,-1],"split_conditions":[-8.7424845E-1,-1.475183E-2,-3.607099E-1,2.8199311E-2,-1.7454444E-3],"split_indices":[15,0,19,0,0],"split_type":[0,0,0,0,0],"sum_hessian":[6.257634E1,1.5281057E1,4.729528E1,1.6666687E1,3.0628593E1],"tree_param":{"num_deleted":"0","num_feature":"25","num_nodes":"5","size_leaf_vector":"1"}},{"base_weights":[-0E0,1.4194987E-2,-1.1738645E-1,-3.347734E-2,2.2243757E-3],"categories":[],"categories_nodes":[],"categories_segments":[],"categories_sizes":[],"default_left":[0,0,0,0,0],"id":43,"left_children":[1,-1,3,-1,-1],"loss_changes":[1.4613085E0,0E0,2.8369865E0,0E0,0E0],"parents":[2147483647,0,0,2,2],"right_children":[2,-1,4,-1,-1],"split_conditions":[-6.446335E-1,1.4194987E-2,-1.3263728E-1,-3.347734E-2,2.2243757E-3],"split_indices":[9,0,18,0,0],"split_type":[0,0,0,0,0],"sum_hessian":[6.390068E1,2.1709467E1,4.219121E1,1.5089999E1,2.7101213E1],"tree_param":{"num_deleted":"0","num_feature":"25","num_nodes":"5","size_leaf_vector":"1"}},{"base_weights":[2.9922023E-2,-2.1583486E-2,1.9174196E-1,-0E0,3.151932E-2],"categories":[],"categories_nodes":[],"categories_segments":[],"categories_sizes":[],"default_left":[0,0,0,0,0],"id":44,"left_children":[1,-1,3,-1,-1],"loss_changes":[3.3428347E0,0E0,1.7944365E0,0E0,0E0],"parents":[2147483647,0,0,2,2],"right_children":[2,-1,4,-1,-1],"split_conditions":[-1.9908737E-1,-2.1583486E-2,-2.6440898E-1,-0E0,3.151932E-2],"split_indices":[2,0,13,0,0],"split_type":[0,0,0,0,0],"sum_hessian":[6.3826675E1,1.7707392E1,4.6119286E1,2.809904E1,1.8020247E1],"tree_param":{"num_deleted":"0","num_feature":"25","num_nodes":"5","size_leaf_vector":"1"}},{"base_weights":[6.44218E-2,-7.2623817E-3,1.9546123E-1,3.3015084E-2,-1.613774E-3],"categories":[],"categories_nodes":[],"categories_segments":[],"categories_sizes":[],"default_left":[0,0,0,0,0],"id":45,"left_children":[1,-1,3,-1,-1],"loss_changes":[1.5690675E0,0E0,2.940023E0,0E0,0E0],"parents":[2147483647,0,0,2,2],"right_children":[2,-1,4,-1,-1],"split_conditions":[-6.2387633E-1,-7.2623817E-3,1.4246652E-1,3.3015084E-2,-1.613774E-3],"split_indices":[19,0,20,0,0],"split_type":[0,0,0,0,0],"sum_hessian":[6.3297195E1,2.31556E1,4.0141594E1,2.122239E1,1.8919205E1],"tree_param":{"num_deleted":"0","num_feature":"25","num_nodes":"5","size_leaf_vector":"1"}},{"base_weights":[-0E0,1.3453883E-1,-1.7735885E-2,4.1405953E-2,-5.24131E-3],"categories":[],"categories_nodes":[],"categories_segments":[],"categories_sizes":[],"default_left":[0,0,0,0,0],"id":46,"left_children":[1,3,-1,-1,-1],"loss_changes":[1.9842255E0,4.863215E0,0E0,0E0,0E0],"parents":[2147483647,0,0,1,1],"right_children":[2,4,-1,-1,-1],"split_conditions":[1.4246652E-1,4.3145767E-1,-1.7735885E-2,4.1405953E-2,-5.24131E-3],"split_indices":[20,0,0,0,0],"split_type":[0,0,0,0,0],"sum_hessian":[6.309733E1,4.4806896E1,1.8290432E1,1.6148413E1,2.8658484E1],"tree_param":{"num_deleted":"0","num_feature":"25","num_nodes":"5","size_leaf_vector":"1"}},{"base_weights":[-1.3987143E-1,5.569785E-3,-2.5300863E-1,-4.9782046E-3,-3.1839605E-2],"categories":[],"categories_nodes":[],"categories_segments":[],"categories_sizes":[],"default_left":[0,0,0,0,0],"id":47,"left_children":[1,-1,3,-1,-1],"loss_changes":[1.9576972E0,0E0,7.8722787E-1,0E0,0E0],"parents":[2147483647,0,0,2,2],"right_children":[2,-1,4,-1,-1],"split_conditions":[-8.057457E-1,5.569785E-3,2.3624723E-1,-4.9782046E-3,-3.1839605E-2],"split_indices":[1,0,0,0,0],"split_type":[0,0,0,0,0],"sum_hessian":[6.592922E1,1.8177435E1,4.775179E1,2.8676975E1,1.9074814E1],"tree_param":{"num_deleted":"0","num_feature":"25","num_nodes":"5","size_leaf_vector":"1"}},{"base_weights":[-2.9228436E-2,2.325671E-2,-1.7496593E-1,-3.19386E-2,-0E0],"categories":[],"categories_nodes":[],"categories_segments":[],"categories_sizes":[],"default_left":[0,0,0,0,0],"id":48,"left_children":[1,-1,3,-1,-1],"loss_changes":[3.3636053E0,0E0,2.2704816E0,0E0,0E0],"parents":[2147483647,0,0,2,2],"right_children":[2,-1,4,-1,-1],"split_conditions":[-8.9199954E-1,2.325671E-2,-1.7629015E-1,-3.19386E-2,-0E0],"split_indices":[13,0,13,0,0],"split_type":[0,0,0,0,0],"sum_hessian":[6.8105736E1,1.6533127E1,5.157261E1,1.9392881E1,3.217973E1],"tree_param":{"num_deleted":"0","num_feature":"25","num_nodes":"5","size_leaf_vector":"1"}},{"base_weights":[-0E0,2.3799308E-2,-8.742796E-2,-2.278018E-2,7.2673806E-3],"categories":[],"categories_nodes":[],"categories_segments":[],"categories_sizes":[],"default_left":[0,0,0,0,0],"id":49,"left_children":[1,-1,3,-1,-1],"loss_changes":[2.1345658E0,0E0,2.560729E0,0E0,0E0],"parents":[2147483647,0,0,2,2],"right_children":[2,-1,4,-1,-1],"split_conditions":[-9.3319017E-1,2.3799308E-2,-9.758299E-2,-2.278018E-2,7.2673806E-3],"split_indices":[13,0,5,0,0],"split_type":[0,0,0,0,0],"sum_hessian":[6.709872E1,1.505361E1,5.2045105E1,2.7195795E1,2.484931E1],"tree_param":{"num_deleted":"0","num_feature":"25","num_nodes":"5","size_leaf_vector":"1"}},{"base_weights":[-1.4552948E-2,-1.6847115E-2,5.673848E-2,-7.301968E-3,2.6845176E-2],"categories":[],"categories_nodes":[],"categories_segments":[],"categories_sizes":[],"default_left":[0,0,0,0,0],"id":50,"left_children":[1,-1,3,-1,-1],"loss_changes":[1.2803712E0,0E0,2.5949159E0,0E0,0E0],"parents":[2147483647,0,0,2,2],"right_children":[2,-1,4,-1,-1],"split_conditions":[-1.5071051E-1,-1.6847115E-2,-4.1871563E-1,-7.301968E-3,2.6845176E-2],"split_indices":[21,0,10,0,0],"split_type":[0,0,0,0,0],"sum_hessian":[6.384339E1,2.0626318E1,4.3217075E1,2.6019241E1,1.7197832E1],"tree_param":{"num_deleted":"0","num_feature":"25","num_nodes":"5","size_leaf_vector":"1"}},{"base_weights":[-7.777452E-2,-2.1049121E-2,-0E0,-2.014614E-1,2.742299E-2,1.7887064E-3,-3.7395407E-2],"categories":[],"categories_nodes":[],"categories_segments":[],"categories_sizes":[],"default_left":[0,0,0,0,0,0,0],"id":51,"left_children":[1,-1,3,5,-1,-1,-1],"loss_changes":[1.137501E0,0E0,3.8881626E0,3.0272083E0,0E0,0E0,0E0],"parents":[2147483647,0,0,2,2,3,3],"right_children":[2,-1,4,6,-1,-1,-1],"split_conditions":[-1.9574389E-1,-2.1049121E-2,-4.1871563E-1,-8.857939E-1,2.742299E-2,1.7887064E-3,-3.7395407E-2],"split_indices":[3,0,10,5,0,0,0],"split_type":[0,0,0,0,0,0,0],"sum_hessian":[6.586862E1,1.7534565E1,4.8334057E1,3.1419125E1,1.6914932E1,1.5931292E1,1.5487833E1],"tree_param":{"num_deleted":"0","num_feature":"25","num_nodes":"7","size_leaf_vector":"1"}},{"base_weights":[-9.892908E-2,-3.4543265E-2,-0E0,2.3451036E-2,-1.2642343E-1,2.3840405E-3,-2.9086225E-2],"categories":[],"categories_nodes":[],"categories_segments":[],"categories_sizes":[],"default_left":[0,0,0,0,0,0,0],"id":52,"left_children":[1,-1,3,-1,5,-1,-1],"loss_changes":[3.0480583E0,0E0,2.3861017E0,0E0,2.0610614E0,0E0,0E0],"parents":[2147483647,0,0,2,2,4,4],"right_children":[2,-1,4,-1,6,-1,-1],"split_conditions":[-8.8337314E-1,-3.4543265E-2,-4.2359844E-1,2.3451036E-2,-2.1852678E-1,2.3840405E-3,-2.9086225E-2],"split_indices":[11,0,19,0,14,0,0],"split_type":[0,0,0,0,0,0,0],"sum_hessian":[6.5393394E1,1.5402358E1,4.9991035E1,1.6566233E1,3.3424805E1,1.8179447E1,1.5245357E1],"tree_param":{"num_deleted":"0","num_feature":"25","num_nodes":"7","size_leaf_vector":"1"}},{"base_weights":[-0E0,1.8168366E-1,-1.5594334E-2,2.814031E-2,-0E0],"categories":[],"categories_nodes":[],"categories_segments":[],"categories_sizes":[],"default_left":[0,0,0,0,0],"id":53,"left_children":[1,3,-1,-1,-1],"loss_changes":[2.5307486E0,1.2394719E0,0E0,0E0,0E0],"parents":[2147483647,0,0,1,1],"right_children":[2,4,-1,-1,-1],"split_conditions":[-1.16344176E-1,6.223048E-1,-1.5594334E-2,2.814031E-2,-0E0],"split_indices":[4,14,0,0,0],"split_type":[0,0,0,0,0],"sum_hessian":[6.381755E1,3.756523E1,2.6252321E1,1.5954041E1,2.161119E1],"tree_param":{"num_deleted":"0","num_feature":"25","num_nodes":"5","size_leaf_vector":"1"}},{"base_weights":[2.3526536E-2,-3.9001655E-2,1.5100833E-2,1.011271E-2,-3.250457E-2],"categories":[],"categories_nodes":[],"categories_segments":[],"categories_sizes":[],"default_left":[0,0,0,0,0],"id":54,"left_children":[1,3,-1,-1,-1],"loss_changes":[1.0570039E0,3.8469675E0,0E0,0E0,0E0],"parents":[2147483647,0,0,1,1],"right_children":[2,4,-1,-1,-1],"split_conditions":[-6.930323E-2,-4.7866824E-1,1.5100833E-2,1.011271E-2,-3.250457E-2],"split_indices":[18,5,0,0,0],"split_type":[0,0,0,0,0],"sum_hessian":[6.82469E1,4.5174168E1,2.3072733E1,2.945775E1,1.5716417E1],"tree_param":{"num_deleted":"0","num_feature":"25","num_nodes":"5","size_leaf_vector":"1"}},{"base_weights":[3.590923E-2,1.3730238E-1,-1.0519408E-2,-5.420091E-3,3.6065456E-2],"categories":[],"categories_nodes":[],"categories_segments":[],"categories_sizes":[],"default_left":[0,0,0,0,0],"id":55,"left_children":[1,3,-1,-1,-1],"loss_changes":[1.2583121E0,4.365209E0,0E0,0E0,0E0],"parents":[2147483647,0,0,1,1],"right_children":[2,4,-1,-1,-1],"split_conditions":[2.1714596E-1,-4.7116262E-1,-1.0519408E-2,-5.420091E-3,3.6065456E-2],"split_indices":[13,24,0,0,0],"split_type":[0,0,0,0,0],"sum_hessian":[6.66453E1,4.8278095E1,1.8367205E1,2.815253E1,2.0125563E1],"tree_param":{"num_deleted":"0","num_feature":"25","num_nodes":"5","size_leaf_vector":"1"}},{"base_weights":[-0E0,1.3447519E-1,-1.7369926E-2,-5.4724407E-3,2.8690968E-2],"categories":[],"categories_nodes":[],"categories_segments":[],"categories_sizes":[],"default_left":[0,0,0,0,0],"id":56,"left_children":[1,3,-1,-1,-1],"loss_changes":[2.0667782E0,2.7351537E0,0E0,0E0,0E0],"parents":[2147483647,0,0,1,1],"right_children":[2,4,-1,-1,-1],"split_conditions":[5.01372E-2,-6.064276E-1,-1.7369926E-2,-5.4724407E-3,2.8690968E-2],"split_indices":[13,11,0,0,0],"split_type":[0,0,0,0,0],"sum_hessian":[6.241491E1,4.0221947E1,2.2192963E1,1.9280132E1,2.0941813E1],"tree_param":{"num_deleted":"0","num_feature":"25","num_nodes":"5","size_leaf_vector":"1"}},{"base_weights":[-3.4035146E-2,5.4442706E-3,-1.3113359E-1,-2.6905676E-2,-0E0],"categories":[],"categories_nodes":[],"categories_segments":[],"categories_sizes":[],"default_left":[0,0,0,0,0],"id":57,"left_children":[1,-1,3,-1,-1],"loss_changes":[8.229489E-1,0E0,1.8836133E0,0E0,0E0],"parents":[2147483647,0,0,2,2],"right_children":[2,-1,4,-1,-1],"split_conditions":[-5.835547E-1,5.4442706E-3,-7.367368E-2,-2.6905676E-2,-0E0],"split_indices":[9,0,18,0,0],"split_type":[0,0,0,0,0],"sum_hessian":[6.690774E1,2.4334822E1,4.2572914E1,1.844498E1,2.4127934E1],"tree_param":{"num_deleted":"0","num_feature":"25","num_nodes":"5","size_leaf_vector":"1"}},{"base_weights":[-8.242412E-2,3.2644723E-2,-2.4214303E-2,1.6905542E-2,-8.717488E-3],"categories":[],"categories_nodes":[],"categories_segments":[],"categories_sizes":[],"default_left":[0,0,0,0,0],"id":58,"left_children":[1,3,-1,-1,-1],"loss_changes":[2.3497992E0,1.464065E0,0E0,0E0,0E0],"parents":[2147483647,0,0,1,1],"right_children":[2,4,-1,-1,-1],"split_conditions":[5.8240575E-1,1.2941125E-1,-2.4214303E-2,1.6905542E-2,-8.717488E-3],"split_indices":[23,20,0,0,0],"split_type":[0,0,0,0,0],"sum_hessian":[6.513312E1,4.0880566E1,2.4252552E1,2.193026E1,1.8950308E1],"tree_param":{"num_deleted":"0","num_feature":"25","num_nodes":"5","size_leaf_vector":"1"}},{"base_weights":[-2.9594325E-2,-1.5065959E-1,1.6933551E-2,-0E0,-1.7801158E-2],"categories":[],"categories_nodes":[],"categories_segments":[],"categories_sizes":[],"default_left":[0,0,0,0,0],"id":59,"left_children":[1,3,-1,-1,-1],"loss_changes":[1.9535062E0,6.2544537E-1,0E0,0E0,0E0],"parents":[2147483647,0,0,1,1],"right_children":[2,4,-1,-1,-1],"split_conditions":[9.500627E-1,-1.1756299E-1,1.6933551E-2,-0E0,-1.7801158E-2],"split_indices":[0,14,0,0,0],"split_type":[0,0,0,0,0],"sum_hessian":[6.2863113E1,4.738838E1,1.5474734E1,1.8766119E1,2.862226E1],"tree_param":{"num_deleted":"0","num_feature":"25","num_nodes":"5","size_leaf_vector":"1"}},{"base_weights":[1.1579537E-1,2.4231489E-1,-3.144359E-3,3.0059133E-2,-0E0],"categories":[],"categories_nodes":[],"categories_segments":[],"categories_sizes":[],"default_left":[0,0,0,0,0],"id":60,"left_children":[1,3,-1,-1,-1],"loss_changes":[1.683029E0,2.038688E0,0E0,0E0,0E0],"parents":[2147483647,0,0,1,1],"right_children":[2,4,-1,-1,-1],"split_conditions":[5.8240575E-1,3.4289625E-1,-3.144359E-3,3.0059133E-2,-0E0],"split_indices":[23,15,0,0,0],"split_type":[0,0,0,0,0],"sum_hessian":[6.580114E1,4.152769E1,2.4273449E1,2.6271132E1,1.5256559E1],"tree_param":{"num_deleted":"0","num_feature":"25","num_nodes":"5","size_leaf_vector":"1"}},{"base_weights":[8.697986E-2,3.5209782E-2,-1.8794756E-2,-1.5648143E-2,7.960326E-3],"categories":[],"categories_nodes":[],"categories_segments":[],"categories_sizes":[],"default_left":[0,0,0,0,0],"id":61,"left_children":[1,-1,3,-1,-1],"loss_changes":[3.465893E0,0E0,1.4341475E0,0E0,0E0],"parents":[2147483647,0,0,2,2],"right_children":[2,-1,4,-1,-1],"split_conditions":[-8.368172E-1,3.5209782E-2,-7.367368E-2,-1.5648143E-2,7.960326E-3],"split_indices":[5,0,18,0,0],"split_type":[0,0,0,0,0],"sum_hessian":[6.520689E1,1.586988E1,4.9337006E1,2.401905E1,2.5317957E1],"tree_param":{"num_deleted":"0","num_feature":"25","num_nodes":"5","size_leaf_vector":"1"}},{"base_weights":[-0E0,1.775974E-2,-1.1113535E-1,9.2622135E-3,-3.996586E-2],"categories":[],"categories_nodes":[],"categories_segments":[],"categories_sizes":[],"default_left":[0,0,0,0,0],"id":62,"left_children":[1,-1,3,-1,-1],"loss_changes":[1.9891424E0,0E0,5.041733E0,0E0,0E0],"parents":[2147483647,0,0,2,2],"right_children":[2,-1,4,-1,-1],"split_conditions":[3.8304653E-2,1.775974E-2,-4.8032045E-1,9.2622135E-3,-3.996586E-2],"split_indices":[14,0,18,0,0],"split_type":[0,0,0,0,0],"sum_hessian":[6.468438E1,2.3888588E1,4.0795788E1,2.4712496E1,1.6083292E1],"tree_param":{"num_deleted":"0","num_feature":"25","num_nodes":"5","size_leaf_vector":"1"}},{"base_weights":[1.3492658E-2,1.8375885E-2,-3.390289E-2,-1.3343455E-1,5.501433E-3,-2.2284864E-2,-0E0],"categories":[],"categories_nodes":[],"categories_segments":[],"categories_sizes":[],"default_left":[0,0,0,0,0,0,0],"id":63,"left_children":[1,-1,3,5,-1,-1,-1],"loss_changes":[1.0980141E0,0E0,6.715964E-1,1.0116177E0,0E0,0E0,0E0],"parents":[2147483647,0,0,2,2,3,3],"right_children":[2,-1,4,6,-1,-1,-1],"split_conditions":[-9.3319017E-1,1.8375885E-2,2.6391E-1,4.1110277E-1,5.501433E-3,-2.2284864E-2,-0E0],"split_indices":[13,0,19,2,0,0,0],"split_type":[0,0,0,0,0,0,0],"sum_hessian":[6.589847E1,1.5430026E1,5.0468445E1,3.358365E1,1.6884796E1,1.6505007E1,1.707864E1],"tree_param":{"num_deleted":"0","num_feature":"25","num_nodes":"7","size_leaf_vector":"1"}},{"base_weights":[-2.9425144E-2,1.1847133E-2,-1.6367398E-1,-3.3132635E-2,2.679556E-3],"categories":[],"categories_nodes":[],"categories_segments":[],"categories_sizes":[],"default_left":[0,0,0,0,0],"id":64,"left_children":[1,-1,3,-1,-1],"loss_changes":[1.703434E0,0E0,3.134307E0,0E0,0E0],"parents":[2147483647,0,0,2,2],"right_children":[2,-1,4,-1,-1],"split_conditions":[-6.253367E-1,1.1847133E-2,4.005221E-3,-3.3132635E-2,2.679556E-3],"split_indices":[9,0,10,0,0],"split_type":[0,0,0,0,0],"sum_hessian":[6.336417E1,2.1350645E1,4.2013527E1,1.9772024E1,2.22415E1],"tree_param":{"num_deleted":"0","num_feature":"25","num_nodes":"5","size_leaf_vector":"1"}},{"base_weights":[1.0461513E-2,1.6156813E-2,-9.564792E-2,-1.6596712E-2,-0E0],"categories":[],"categories_nodes":[],"categories_segments":[],"categories_sizes":[],"default_left":[0,0,0,0,0],"id":65,"left_children":[1,-1,3,-1,-1],"loss_changes":[1.6784288E0,0E0,6.436141E-1,0E0,0E0],"parents":[2147483647,0,0,2,2],"right_children":[2,-1,4,-1,-1],"split_conditions":[-4.8686203E-1,1.6156813E-2,2.0282675E-1,-1.6596712E-2,-0E0],"split_indices":[15,0,13,0,0],"split_type":[0,0,0,0,0],"sum_hessian":[6.4360405E1,2.6203125E1,3.8157276E1,1.8486027E1,1.967125E1],"tree_param":{"num_deleted":"0","num_feature":"25","num_nodes":"5","size_leaf_vector":"1"}},{"base_weights":[-0E0,2.0413E-2,-8.8397495E-2,-0E0,-1.4620543E-2],"categories":[],"categories_nodes":[],"categories_segments":[],"categories_sizes":[],"default_left":[0,0,0,0,0],"id":66,"left_children":[1,-1,3,-1,-1],"loss_changes":[1.6745257E0,0E0,6.352536E-1,0E0,0E0],"parents":[2147483647,0,0,2,2],"right_children":[2,-1,4,-1,-1],"split_conditions":[-8.9199954E-1,2.0413E-2,-7.388946E-2,-0E0,-1.4620543E-2],"split_indices":[13,0,15,0,0],"split_type":[0,0,0,0,0],"sum_hessian":[6.3064747E1,1.5317111E1,4.774764E1,2.3070417E1,2.467722E1],"tree_param":{"num_deleted":"0","num_feature":"25","num_nodes":"5","size_leaf_vector":"1"}},{"base_weights":[-0E0,9.3740724E-2,-1.6665557E-2,-3.28323E-3,2.6365612E-2],"categories":[],"categories_nodes":[],"categories_segments":[],"categories_sizes":[],"default_left":[0,0,0,0,0],"id":67,"left_children":[1,3,-1,-1,-1],"loss_changes":[1.5405382E0,2.0640945E0,0E0,0E0,0E0],"parents":[2147483647,0,0,1,1],"right_children":[2,4,-1,-1,-1],"split_conditions":[9.1088384E-2,-4.5854953E-1,-1.6665557E-2,-3.28323E-3,2.6365612E-2],"split_indices":[13,24,0,0,0],"split_type":[0,0,0,0,0],"sum_hessian":[6.2699024E1,4.1337646E1,2.1361376E1,2.4074207E1,1.726344E1],"tree_param":{"num_deleted":"0","num_feature":"25","num_nodes":"5","size_leaf_vector":"1"}},{"base_weights":[-1.8731292E-2,-1.7171273E-1,9.6569695E-2,-2.4764217E-2,-0E0,-9.12679E-3,2.7685061E-2],"categories":[],"categories_nodes":[],"categories_segments":[],"categories_sizes":[],"default_left":[0,0,0,0,0,0,0],"id":68,"left_children":[1,3,5,-1,-1,-1,-1],"loss_changes":[1.3300858E0,9.002553E-1,2.4994032E0,0E0,0E0,0E0,0E0],"parents":[2147483647,0,0,1,1,2,2],"right_children":[2,4,6,-1,-1,-1,-1],"split_conditions":[3.318171E-1,2.6391E-1,-8.8111824E-1,-2.4764217E-2,-0E0,-9.12679E-3,2.7685061E-2],"split_indices":[2,19,9,0,0,0,0],"split_type":[0,0,0,0,0,0,0],"sum_hessian":[6.528949E1,3.352591E1,3.1763584E1,1.5733287E1,1.7792622E1,1.5074496E1,1.6689087E1],"tree_param":{"num_deleted":"0","num_feature":"25","num_nodes":"7","size_leaf_vector":"1"}},{"base_weights":[-0E0,-1.7940577E-2,8.6059235E-2,-4.889646E-2,3.290194E-2,-1.714553E-2,2.7263178E-3],"categories":[],"categories_nodes":[],"categories_segments":[],"categories_sizes":[],"default_left":[0,0,0,0,0,0,0],"id":69,"left_children":[1,-1,3,5,-1,-1,-1],"loss_changes":[1.4139581E0,0E0,3.1340828E0,8.750837E-1,0E0,0E0,0E0],"parents":[2147483647,0,0,2,2,3,3],"right_children":[2,-1,4,6,-1,-1,-1],"split_conditions":[-8.7424845E-1,-1.7940577E-2,4.1110277E-1,1.6834085E-1,3.290194E-2,-1.714553E-2,2.7263178E-3],"split_indices":[15,0,2,11,0,0,0],"split_type":[0,0,0,0,0,0,0],"sum_hessian":[6.5744316E1,1.5962942E1,4.9781376E1,3.4028244E1,1.5753131E1,1.5795988E1,1.8232256E1],"tree_param":{"num_deleted":"0","num_feature":"25","num_nodes":"7","size_leaf_vector":"1"}},{"base_weights":[-3.0993199E-2,6.098982E-3,-1.4093342E-1,-3.4357954E-2,5.7844496E-3],"categories":[],"categories_nodes":[],"categories_segments":[],"categories_sizes":[],"default_left":[0,0,0,0,0],"id":70,"left_children":[1,-1,3,-1,-1],"loss_changes":[9.7501713E-1,0E0,3.6747265E0,0E0,0E0],"parents":[2147483647,0,0,2,2],"right_children":[2,-1,4,-1,-1],"split_conditions":[-4.8032045E-1,6.098982E-3,4.005221E-3,-3.4357954E-2,5.7844496E-3],"split_indices":[18,0,10,0,0],"split_type":[0,0,0,0,0],"sum_hessian":[6.7627914E1,2.6545578E1,4.1082336E1,1.8749674E1,2.233266E1],"tree_param":{"num_deleted":"0","num_feature":"25","num_nodes":"5","size_leaf_vector":"1"}},{"base_weights":[-0E0,6.201496E-3,-1.1806775E-1,-1.8944047E-2,-0E0],"categories":[],"categories_nodes":[],"categories_segments":[],"categories_sizes":[],"default_left":[0,0,0,0,0],"id":71,"left_children":[1,-1,3,-1,-1],"loss_changes":[6.9079906E-1,0E0,7.155776E-1,0E0,0E0],"parents":[2147483647,0,0,2,2],"right_children":[2,-1,4,-1,-1],"split_conditions":[-3.5767508E-1,6.201496E-3,1.7378542E-1,-1.8944047E-2,-0E0],"split_indices":[1,0,9,0,0],"split_type":[0,0,0,0,0],"sum_hessian":[6.1209156E1,2.8556927E1,3.2652225E1,1.6651543E1,1.6000685E1],"tree_param":{"num_deleted":"0","num_feature":"25","num_nodes":"5","size_leaf_vector":"1"}},{"base_weights":[3.1326428E-2,-6.1137774E-3,9.997553E-2,3.0598814E-2,-1.614604E-2,-1.701264E-2,7.1576866E-3],"categories":[],"categories_nodes":[],"categories_segments":[],"categories_sizes":[],"default_left":[0,0,0,0,0,0,0],"id":72,"left_children":[1,-1,3,-1,5,-1,-1],"loss_changes":[5.569644E-1,0E0,2.4588885E0,0E0,1.0795444E0,0E0,0E0],"parents":[2147483647,0,0,2,2,4,4],"right_children":[2,-1,4,-1,6,-1,-1],"split_conditions":[-8.7424845E-1,-6.1137774E-3,-4.2359844E-1,3.0598814E-2,1.736272E-1,-1.701264E-2,7.1576866E-3],"split_indices":[15,0,19,0,10,0,0],"split_type":[0,0,0,0,0,0,0],"sum_hessian":[6.424473E1,1.5477642E1,4.8767086E1,1.5682759E1,3.3084328E1,1.5626185E1,1.7458141E1],"tree_param":{"num_deleted":"0","num_feature":"25","num_nodes":"7","size_leaf_vector":"1"}},{"base_weights":[3.6955524E-2,1.5990101E-1,-1.02607375E-2,2.345975E-2,-0E0],"categories":[],"categories_nodes":[],"categories_segments":[],"categories_sizes":[],"default_left":[0,0,0,0,0],"id":73,"left_children":[1,3,-1,-1,-1],"loss_changes":[1.5196115E0,1.6141578E0,0E0,0E0,0E0],"parents":[2147483647,0,0,1,1],"right_children":[2,4,-1,-1,-1],"split_conditions":[6.435236E-1,2.4873044E-1,-1.02607375E-2,2.345975E-2,-0E0],"split_indices":[0,11,0,0,0],"split_type":[0,0,0,0,0],"sum_hessian":[6.546869E1,4.3794827E1,2.1673862E1,2.6158758E1,1.7636066E1],"tree_param":{"num_deleted":"0","num_feature":"25","num_nodes":"5","size_leaf_vector":"1"}},{"base_weights":[-0E0,-1.7477414E-2,8.630329E-2,2.271024E-2,-0E0],"categories":[],"categories_nodes":[],"categories_segments":[],"categories_sizes":[],"default_left":[0,0,0,0,0],"id":74,"left_children":[1,-1,3,-1,-1],"loss_changes":[1.3034185E0,0E0,1.2117445E0,0E0,0E0],"parents":[2147483647,0,0,2,2],"right_children":[2,-1,4,-1,-1],"split_conditions":[-8.7424845E-1,-1.7477414E-2,-4.014086E-1,2.271024E-2,-0E0],"split_indices":[15,0,15,0,0],"split_type":[0,0,0,0,0],"sum_hessian":[6.36841E1,1.5026052E1,4.865805E1,1.5249807E1,3.340824E1],"tree_param":{"num_deleted":"0","num_feature":"25","num_nodes":"5","size_leaf_vector":"1"}},{"base_weights":[3.1933833E-2,2.6041437E-2,-8.32342E-2,9.739688E-3,-3.555564E-2],"categories":[],"categories_nodes":[],"categories_segments":[],"categories_sizes":[],"default_left":[0,0,0,0,0],"id":75,"left_children":[1,-1,3,-1,-1],"loss_changes":[2.662195E0,0E0,4.1851406E0,0E0,0E0],"parents":[2147483647,0,0,2,2],"right_children":[2,-1,4,-1,-1],"split_conditions":[-1.1756299E-1,2.6041437E-2,-5.375185E-1,9.739688E-3,-3.555564E-2],"split_indices":[14,0,4,0,0],"split_type":[0,0,0,0,0],"sum_hessian":[5.8047382E1,1.8078384E1,3.9968998E1,2.4108786E1,1.5860212E1],"tree_param":{"num_deleted":"0","num_feature":"25","num_nodes":"5","size_leaf_vector":"1"}},{"base_weights":[1.9096429E-2,3.4276053E-2,-1.1521777E-1,-0E0,-2.4050653E-2,1.529425E-2,-1.3962461E-2],"categories":[],"categories_nodes":[],"categories_segments":[],"categories_sizes":[],"default_left":[0,0,0,0,0,0,0],"id":76,"left_children":[1,-1,3,5,-1,-1,-1],"loss_changes":[4.5228343E0,0E0,1.2430791E0,1.331377E0,0E0,0E0,0E0],"parents":[2147483647,0,0,2,2,3,3],"right_children":[2,-1,4,6,-1,-1,-1],"split_conditions":[-7.929603E-1,3.4276053E-2,1.4246652E-1,4.3145767E-1,-2.4050653E-2,1.529425E-2,-1.3962461E-2],"split_indices":[13,0,20,0,0,0,0],"split_type":[0,0,0,0,0,0,0],"sum_hessian":[6.3735985E1,1.6573536E1,4.716245E1,3.0837465E1,1.6324986E1,1.5181565E1,1.56559E1],"tree_param":{"num_deleted":"0","num_feature":"25","num_nodes":"7","size_leaf_vector":"1"}},{"base_weights":[3.2266624E-2,-7.467479E-2,1.8430868E-1,-2.349328E-2,7.379141E-3,3.7103385E-2,-4.2498442E-3],"categories":[],"categories_nodes":[],"categories_segments":[],"categories_sizes":[],"default_left":[0,0,0,0,0,0,0],"id":77,"left_children":[1,3,5,-1,-1,-1,-1],"loss_changes":[1.2653662E0,1.813527E0,3.303275E0,0E0,0E0,0E0,0E0],"parents":[2147483647,0,0,1,1,2,2],"right_children":[2,4,6,-1,-1,-1,-1],"split_conditions":[-3.877602E-1,9.500627E-1,2.5565845E-1,-2.349328E-2,7.379141E-3,3.7103385E-2,-4.2498442E-3],"split_indices":[24,0,11,0,0,0,0],"split_type":[0,0,0,0,0,0,0],"sum_hessian":[6.39828E1,3.2043728E1,3.1939068E1,1.6590586E1,1.5453144E1,1.5865292E1,1.6073776E1],"tree_param":{"num_deleted":"0","num_feature":"25","num_nodes":"7","size_leaf_vector":"1"}},{"base_weights":[-6.694813E-2,-1.4131959E-1,4.0408485E-3,-3.013558E-2,-0E0,1.2632316E-2,-1.0281235E-2],"categories":[],"categories_nodes":[],"categories_segments":[],"categories_sizes":[],"default_left":[0,0,0,0,0,0,0],"id":78,"left_children":[1,3,-1,-1,5,-1,-1],"loss_changes":[7.637552E-1,2.0429873E0,0E0,0E0,8.484329E-1,0E0,0E0],"parents":[2147483647,0,0,1,1,4,4],"right_children":[2,4,-1,-1,6,-1,-1],"split_conditions":[7.221267E-1,-3.0532083E-1,4.0408485E-3,-3.013558E-2,2.3758875E-1,1.2632316E-2,-1.0281235E-2],"split_indices":[3,18,0,0,18,0,0],"split_type":[0,0,0,0,0,0,0],"sum_hessian":[6.628197E1,4.8911953E1,1.7370016E1,1.683444E1,3.2077515E1,1.5435508E1,1.6642008E1],"tree_param":{"num_deleted":"0","num_feature":"25","num_nodes":"7","size_leaf_vector":"1"}},{"base_weights":[-0E0,7.743417E-2,-1.2442875E-2,2.6137918E-2,-4.162951E-3],"categories":[],"categories_nodes":[],"categories_segments":[],"categories_sizes":[],"default_left":[0,0,0,0,0],"id":79,"left_children":[1,3,-1,-1,-1],"loss_changes":[8.029785E-1,2.2252703E0,0E0,0E0,0E0],"parents":[2147483647,0,0,1,1],"right_children":[2,4,-1,-1,-1],"split_conditions":[1.4246652E-1,3.7032625E-1,-1.2442875E-2,2.6137918E-2,-4.162951E-3],"split_indices":[20,0,0,0,0],"split_type":[0,0,0,0,0],"sum_hessian":[6.2272617E1,4.5482918E1,1.67897E1,1.7788784E1,2.7694134E1],"tree_param":{"num_deleted":"0","num_feature":"25","num_nodes":"5","size_leaf_vector":"1"}},{"base_weights":[-7.893504E-2,1.2175901E-3,-1.5600005E-1,-2.2843795E-2,-0E0],"categories":[],"categories_nodes":[],"categories_segments":[],"categories_sizes":[],"default_left":[0,0,0,0,0],"id":80,"left_children":[1,-1,3,-1,-1],"loss_changes":[7.0129263E-1,0E0,1.5302466E0,0E0,0E0],"parents":[2147483647,0,0,2,2],"right_children":[2,-1,4,-1,-1],"split_conditions":[-7.069707E-1,1.2175901E-3,1.7378542E-1,-2.2843795E-2,-0E0],"split_indices":[4,0,9,0,0],"split_type":[0,0,0,0,0],"sum_hessian":[6.330825E1,1.9840775E1,4.3467476E1,2.6116314E1,1.7351162E1],"tree_param":{"num_deleted":"0","num_feature":"25","num_nodes":"5","size_leaf_vector":"1"}},{"base_weights":[1.0505196E-2,2.325367E-2,-1.1003688E-1,-2.054135E-2,7.4990175E-4],"categories":[],"categories_nodes":[],"categories_segments":[],"categories_sizes":[],"default_left":[0,0,0,0,0],"id":81,"left_children":[1,-1,3,-1,-1],"loss_changes":[2.693803E0,0E0,1.280976E0,0E0,0E0],"parents":[2147483647,0,0,2,2],"right_children":[2,-1,4,-1,-1],"split_conditions":[-6.356213E-1,2.325367E-2,1.18928164E-1,-2.054135E-2,7.4990175E-4],"split_indices":[13,0,11,0,0],"split_type":[0,0,0,0,0],"sum_hessian":[6.1793797E1,2.0521496E1,4.12723E1,2.1822489E1,1.9449814E1],"tree_param":{"num_deleted":"0","num_feature":"25","num_nodes":"5","size_leaf_vector":"1"}},{"base_weights":[-1.5009414E-2,3.362313E-2,-1.3257601E-2,1.9263618E-2,-1.4703779E-2],"categories":[],"categories_nodes":[],"categories_segments":[],"categories_sizes":[],"default_left":[0,0,0,0,0],"id":82,"left_children":[1,3,-1,-1,-1],"loss_changes":[7.5580037E-1,2.5032232E0,0E0,0E0,0E0],"parents":[2147483647,0,0,1,1],"right_children":[2,4,-1,-1,-1],"split_conditions":[6.435236E-1,5.9662044E-2,-1.3257601E-2,1.9263618E-2,-1.4703779E-2],"split_indices":[0,20,0,0,0],"split_type":[0,0,0,0,0],"sum_hessian":[6.3545017E1,4.2651623E1,2.0893394E1,2.492554E1,1.7726082E1],"tree_param":{"num_deleted":"0","num_feature":"25","num_nodes":"5","size_leaf_vector":"1"}},{"base_weights":[-8.488397E-2,-2.2248453E-1,1.3589024E-2,-2.8581582E-2,-0E0],"categories":[],"categories_nodes":[],"categories_segments":[],"categories_sizes":[],"default_left":[0,0,0,0,0],"id":83,"left_children":[1,3,-1,-1,-1],"loss_changes":[2.379977E0,1.1547072E0,0E0,0E0,0E0],"parents":[2147483647,0,0,1,1],"right_children":[2,4,-1,-1,-1],"split_conditions":[6.769718E-1,-3.9753005E-2,1.3589024E-2,-2.8581582E-2,-0E0],"split_indices":[3,20,0,0,0],"split_type":[0,0,0,0,0],"sum_hessian":[5.9209457E1,4.3166397E1,1.6043058E1,2.1106901E1,2.2059498E1],"tree_param":{"num_deleted":"0","num_feature":"25","num_nodes":"5","size_leaf_vector":"1"}},{"base_weights":[1.7320318E-2,-1.47994235E-2,1.2761435E-1,-0E0,2.7602345E-2],"categories":[],"categories_nodes":[],"categories_segments":[],"categories_sizes":[],"default_left":[0,0,0,0,0],"id":84,"left_children":[1,-1,3,-1,-1],"loss_changes":[1.5606718E0,0E0,2.121696E0,0E0,0E0],"parents":[2147483647,0,0,2,2],"right_children":[2,-1,4,-1,-1],"split_conditions":[-8.7424845E-1,-1.47994235E-2,3.318171E-1,-0E0,2.7602345E-2],"split_indices":[15,0,2,0,0],"split_type":[0,0,0,0,0],"sum_hessian":[6.643943E1,1.7158142E1,4.9281292E1,2.9615606E1,1.9665684E1],"tree_param":{"num_deleted":"0","num_feature":"25","num_nodes":"5","size_leaf_vector":"1"}},{"base_weights":[-4.276266E-2,-1.5575162E-1,1.1976602E-2,-3.8234983E-2,-0E0,-8.925799E-3,1.4398902E-2],"categories":[],"categories_nodes":[],"categories_segments":[],"categories_sizes":[],"default_left":[0,0,0,0,0,0,0],"id":85,"left_children":[1,3,-1,-1,5,-1,-1],"loss_changes":[1.5480438E0,3.2685575E0,0E0,0E0,8.935275E-1,0E0,0E0],"parents":[2147483647,0,0,1,1,4,4],"right_children":[2,4,-1,-1,6,-1,-1],"split_conditions":[2.6391E-1,3.318171E-1,1.1976602E-2,-3.8234983E-2,-7.78238E-1,-8.925799E-3,1.4398902E-2],"split_indices":[19,2,0,0,20,0,0],"split_type":[0,0,0,0,0,0,0],"sum_hessian":[6.387987E1,4.6309982E1,1.756989E1,1.5006034E1,3.130395E1,1.6113726E1,1.5190224E1],"tree_param":{"num_deleted":"0","num_feature":"25","num_nodes":"7","size_leaf_vector":"1"}},{"base_weights":[1.4205341E-2,2.2452354E-2,-6.034627E-2,-2.449049E-2,1.2328246E-2],"categories":[],"categories_nodes":[],"categories_segments":[],"categories_sizes":[],"default_left":[0,0,0,0,0],"id":86,"left_children":[1,-1,3,-1,-1],"loss_changes":[1.7711854E0,0E0,3.2435057E0,0E0,0E0],"parents":[2147483647,0,0,2,2],"right_children":[2,-1,4,-1,-1],"split_conditions":[-8.057457E-1,2.2452354E-2,2.6142476E-2,-2.449049E-2,1.2328246E-2],"split_indices":[1,0,11,0,0],"split_type":[0,0,0,0,0],"sum_hessian":[6.1658714E1,1.5901078E1,4.5757637E1,2.369371E1,2.2063927E1],"tree_param":{"num_deleted":"0","num_feature":"25","num_nodes":"5","size_leaf_vector":"1"}},{"base_weights":[-2.4187203E-2,4.5203045E-2,-1.3011665E-2,1.6777083E-2,-5.607422E-3],"categories":[],"categories_nodes":[],"categories_segments":[],"categories_sizes":[],"default_left":[0,0,0,0,0],"id":87,"left_children":[1,3,-1,-1,-1],"loss_changes":[8.671113E-1,1.066654E0,0E0,0E0,0E0],"parents":[2147483647,0,0,1,1],"right_children":[2,4,-1,-1,-1],"split_conditions":[-1.460098E-1,7.253312E-1,-1.3011665E-2,1.6777083E-2,-5.607422E-3],"split_indices":[15,22,0,0,0],"split_type":[0,0,0,0,0],"sum_hessian":[6.034048E1,3.505679E1,2.5283693E1,1.8633064E1,1.6423725E1],"tree_param":{"num_deleted":"0","num_feature":"25","num_nodes":"5","size_leaf_vector":"1"}},{"base_weights":[-0E0,8.988887E-2,-1.5017938E-2,-4.7732532E-4,2.3890704E-2],"categories":[],"categories_nodes":[],"categories_segments":[],"categories_sizes":[],"default_left":[0,0,0,0,0],"id":88,"left_children":[1,3,-1,-1,-1],"loss_changes":[1.3140392E0,1.522489E0,0E0,0E0,0E0],"parents":[2147483647,0,0,1,1],"right_children":[2,4,-1,-1,-1],"split_conditions":[9.1088384E-2,-4.5854953E-1,-1.5017938E-2,-4.7732532E-4,2.3890704E-2],"split_indices":[13,24,0,0,0],"split_type":[0,0,0,0,0],"sum_hessian":[6.559142E1,4.4261578E1,2.1329845E1,2.7688366E1,1.6573214E1],"tree_param":{"num_deleted":"0","num_feature":"25","num_nodes":"5","size_leaf_vector":"1"}},{"base_weights":[1.01808915E-2,-6.949242E-2,1.3904792E-2,-2.6857687E-2,7.704147E-3],"categories":[],"categories_nodes":[],"categories_segments":[],"categories_sizes":[],"default_left":[0,0,0,0,0],"id":89,"left_children":[1,3,-1,-1,-1],"loss_changes":[1.1197674E0,2.481445E0,0E0,0E0,0E0],"parents":[2147483647,0,0,1,1],"right_children":[2,4,-1,-1,-1],"split_conditions":[5.684799E-1,4.005221E-3,1.3904792E-2,-2.6857687E-2,7.704147E-3],"split_indices":[2,10,0,0,0],"split_type":[0,0,0,0,0],"sum_hessian":[6.3026325E1,3.807929E1,2.4947037E1,1.683563E1,2.1243658E1],"tree_param":{"num_deleted":"0","num_feature":"25","num_nodes":"5","size_leaf_vector":"1"}},{"base_weights":[2.6220089E-2,1.3103141E-1,-1.2506604E-2,-8.8261004E-5,2.7501376E-2],"categories":[],"categories_nodes":[],"categories_segments":[],"categories_sizes":[],"default_left":[0,0,0,0,0],"id":90,"left_children":[1,3,-1,-1,-1],"loss_changes":[1.2716424E0,2.0742111E0,0E0,0E0,0E0],"parents":[2147483647,0,0,1,1],"right_children":[2,4,-1,-1,-1],"split_conditions":[2.3228312E-1,-4.7116262E-1,-1.2506604E-2,-8.8261004E-5,2.7501376E-2],"split_indices":[11,24,0,0,0],"split_type":[0,0,0,0,0],"sum_hessian":[6.1578365E1,4.5618305E1,1.5960063E1,2.627241E1,1.9345894E1],"tree_param":{"num_deleted":"0","num_feature":"25","num_nodes":"5","size_leaf_vector":"1"}},{"base_weights":[-7.901654E-3,-1.4949726E-1,1.736023E-2,-3.631261E-2,4.146959E-3],"categories":[],"categories_nodes":[],"categories_segments":[],"categories_sizes":[],"default_left":[0,0,0,0,0],"id":91,"left_children":[1,3,-1,-1,-1],"loss_changes":[2.0955021E0,3.8619494E0,0E0,0E0,0E0],"parents":[2147483647,0,0,1,1],"right_children":[2,4,-1,-1,-1],"split_conditions":[6.620393E-1,-7.367368E-2,1.736023E-2,-3.631261E-2,4.146959E-3],"split_indices":[2,18,0,0,0],"split_type":[0,0,0,0,0],"sum_hessian":[6.158625E1,4.332954E1,1.825671E1,1.830498E1,2.502456E1],"tree_param":{"num_deleted":"0","num_feature":"25","num_nodes":"5","size_leaf_vector":"1"}},{"base_weights":[2.2571255E-2,-1.4443457E-2,1.9916354E-1,-3.0155524E-3,3.2674935E-2],"categories":[],"categories_nodes":[],"categories_segments":[],"categories_sizes":[],"default_left":[0,0,0,0,0],"id":92,"left_children":[1,-1,3,-1,-1],"loss_changes":[2.481845E0,0E0,2.9296477E0,0E0,0E0],"parents":[2147483647,0,0,2,2],"right_children":[2,-1,4,-1,-1],"split_conditions":[-6.487438E-1,-1.4443457E-2,-2.2298849E-1,-3.0155524E-3,3.2674935E-2],"split_indices":[19,0,3,0,0],"split_type":[0,0,0,0,0],"sum_hessian":[6.106241E1,2.3350613E1,3.7711796E1,1.6347801E1,2.1363995E1],"tree_param":{"num_deleted":"0","num_feature":"25","num_nodes":"5","size_leaf_vector":"1"}},{"base_weights":[-7.273865E-2,6.4640446E-3,-1.8089332E-1,-0E0,-2.4328917E-2],"categories":[],"categories_nodes":[],"categories_segments":[],"categories_sizes":[],"default_left":[0,0,0,0,0],"id":93,"left_children":[1,-1,3,-1,-1],"loss_changes":[1.3000158E0,0E0,1.5279931E0,0E0,0E0],"parents":[2147483647,0,0,2,2],"right_children":[2,-1,4,-1,-1],"split_conditions":[-6.356213E-1,6.4640446E-3,-1.1756299E-1,-0E0,-2.4328917E-2],"split_indices":[13,0,14,0,0],"split_type":[0,0,0,0,0],"sum_hessian":[6.337153E1,1.9883907E1,4.348762E1,1.7141645E1,2.6345978E1],"tree_param":{"num_deleted":"0","num_feature":"25","num_nodes":"5","size_leaf_vector":"1"}},{"base_weights":[2.1463597E-2,-6.271267E-2,1.6506739E-2,-2.2139782E-2,1.5508501E-2],"categories":[],"categories_nodes":[],"categories_segments":[],"categories_sizes":[],"default_left":[0,0,0,0,0],"id":94,"left_children":[1,3,-1,-1,-1],"loss_changes":[1.3818876E0,2.9336393E0,0E0,0E0,0E0],"parents":[2147483647,0,0,1,1],"right_children":[2,4,-1,-1,-1],"split_conditions":[-7.7276684E-2,9.500627E-1,1.6506739E-2,-2.2139782E-2,1.5508501E-2],"split_indices":[10,0,0,0,0],"split_type":[0,0,0,0,0],"sum_hessian":[6.386641E1,4.0335854E1,2.3530558E1,2.4614746E1,1.5721107E1],"tree_param":{"num_deleted":"0","num_feature":"25","num_nodes":"5","size_leaf_vector":"1"}},{"base_weights":[2.242883E-2,-4.6435777E-2,2.336633E-2,-2.109152E-2,4.864528E-2,2.4740271E-2,-1.0530213E-2],"categories":[],"categories_nodes":[],"categories_segments":[],"categories_sizes":[],"default_left":[0,0,0,0,0,0,0],"id":95,"left_children":[1,3,-1,-1,5,-1,-1],"loss_changes":[1.7588929E0,1.5221717E0,0E0,0E0,2.1419723E0,0E0,0E0],"parents":[2147483647,0,0,1,1,4,4],"right_children":[2,4,-1,-1,6,-1,-1],"split_conditions":[9.500627E-1,-3.0532083E-1,2.336633E-2,-2.109152E-2,2.5565845E-1,2.4740271E-2,-1.0530213E-2],"split_indices":[0,18,0,0,11,0,0],"split_type":[0,0,0,0,0,0,0],"sum_hessian":[6.3606068E1,4.8322464E1,1.5283603E1,1.753759E1,3.0784876E1,1.5119243E1,1.5665632E1],"tree_param":{"num_deleted":"0","num_feature":"25","num_nodes":"7","size_leaf_vector":"1"}},{"base_weights":[2.4025911E-2,-8.784841E-2,1.5001244E-2,2.3613845E-3,-2.1126855E-2],"categories":[],"categories_nodes":[],"categories_segments":[],"categories_sizes":[],"default_left":[0,0,0,0,0],"id":96,"left_children":[1,3,-1,-1,-1],"loss_changes":[1.4547712E0,1.2152327E0,0E0,0E0,0E0],"parents":[2147483647,0,0,1,1],"right_children":[2,4,-1,-1,-1],"split_conditions":[-1.9238937E-1,-8.368172E-1,1.5001244E-2,2.3613845E-3,-2.1126855E-2],"split_indices":[16,5,0,0,0],"split_type":[0,0,0,0,0],"sum_hessian":[6.085773E1,3.2484077E1,2.8373653E1,1.6146126E1,1.633795E1],"tree_param":{"num_deleted":"0","num_feature":"25","num_nodes":"5","size_leaf_vector":"1"}},{"base_weights":[-0E0,-4.4090252E-2,1.28806615E-2,9.4570845E-2,-2.8298428E-2,-2.6104324E-3,2.2682799E-2],"categories":[],"categories_nodes":[],"categories_segments":[],"categories_sizes":[],"default_left":[0,0,0,0,0,0,0],"id":97,"left_children":[1,3,-1,5,-1,-1,-1],"loss_changes":[6.553243E-1,2.7864985E0,0E0,1.3327917E0,0E0,0E0,0E0],"parents":[2147483647,0,0,1,1,3,3],"right_children":[2,4,-1,6,-1,-1,-1],"split_conditions":[2.3603424E-1,-3.4097555E-1,1.28806615E-2,-8.184381E-1,-2.8298428E-2,-2.6104324E-3,2.2682799E-2],"split_indices":[19,8,0,9,0,0,0],"split_type":[0,0,0,0,0,0,0],"sum_hessian":[6.3904324E1,4.699132E1,1.6913004E1,3.088124E1,1.6110079E1,1.5415005E1,1.5466237E1],"tree_param":{"num_deleted":"0","num_feature":"25","num_nodes":"7","size_leaf_vector":"1"}},{"base_weights":[1.0540988E-1,-1.8293336E-3,2.1991637E-1,3.634446E-2,-4.9533504E-3],"categories":[],"categories_nodes":[],"categories_segments":[],"categories_sizes":[],"default_left":[0,0,0,0,0],"id":98,"left_children":[1,-1,3,-1,-1],"loss_changes":[1.2181251E0,0E0,3.7083435E0,0E0,0E0],"parents":[2147483647,0,0,2,2],"right_children":[2,-1,4,-1,-1],"split_conditions":[-6.556012E-1,-1.8293336E-3,2.1966065E-1,3.634446E-2,-4.9533504E-3],"split_indices":[19,0,17,0,0],"split_type":[0,0,0,0,0],"sum_hessian":[5.885311E1,2.1806793E1,3.7046318E1,2.1290737E1,1.5755581E1],"tree_param":{"num_deleted":"0","num_feature":"25","num_nodes":"5","size_leaf_vector":"1"}},{"base_weights":[1.3797091E-2,-1.2174483E-2,1.5453184E-1,2.541284E-2,-0E0],"categories":[],"categories_nodes":[],"categories_segments":[],"categories_sizes":[],"default_left":[0,0,0,0,0],"id":99,"left_children":[1,-1,3,-1,-1],"loss_changes":[1.5895381E0,0E0,1.2735466E0,0E0,0E0],"parents":[2147483647,0,0,2,2],"right_children":[2,-1,4,-1,-1],"split_conditions":[-2.8347736E-2,-1.2174483E-2,5.978177E-1,2.541284E-2,-0E0],"split_indices":[12,0,23,0,0],"split_type":[0,0,0,0,0],"sum_hessian":[6.0637344E1,2.1765858E1,3.8871487E1,1.744685E1,2.1424635E1],"tree_param":{"num_deleted":"0","num_feature":"25","num_nodes":"5","size_leaf_vector":"1"}},{"base_weights":[-2.4451518E-2,-1.9617256E-2,5.488106E-2,-6.563164E-3,2.711049E-2],"categories":[],"categories_nodes":[],"categories_segments":[],"categories_sizes":[],"default_left":[0,0,0,0,0],"id":100,"left_children":[1,-1,3,-1,-1],"loss_changes":[1.6367983E0,0E0,2.5878978E0,0E0,0E0],"parents":[2147483647,0,0,2,2],"right_children":[2,-1,4,-1,-1],"split_conditions":[-1.5071051E-1,-1.9617256E-2,-4.3101802E-1,-6.563164E-3,2.711049E-2],"split_indices":[21,0,1,0,0],"split_type":[0,0,0,0,0],"sum_hessian":[6.584917E1,2.0283382E1,4.5565784E1,2.8569342E1,1.699644E1],"tree_param":{"num_deleted":"0","num_feature":"25","num_nodes":"5","size_leaf_vector":"1"}},{"base_weights":[-7.657252E-2,8.809085E-3,-1.9866551E-1,-2.9977266E-2,-0E0],"categories":[],"categories_nodes":[],"categories_segments":[],"categories_sizes":[],"default_left":[0,0,0,0,0],"id":101,"left_children":[1,-1,3,-1,-1],"loss_changes":[1.7096969E0,0E0,2.119285E0,0E0,0E0],"parents":[2147483647,0,0,2,2],"right_children":[2,-1,4,-1,-1],"split_conditions":[-8.117512E-1,8.809085E-3,6.712107E-2,-2.9977266E-2,-0E0],"split_indices":[19,0,10,0,0],"split_type":[0,0,0,0,0],"sum_hessian":[6.29987E1,1.9335896E1,4.3662804E1,2.2308804E1,2.1354E1],"tree_param":{"num_deleted":"0","num_feature":"25","num_nodes":"5","size_leaf_vector":"1"}},{"base_weights":[-1.3320204E-2,1.7127769E-2,-1.8151216E-2],"categories":[],"categories_nodes":[],"categories_segments":[],"categories_sizes":[],"default_left":[0,0,0],"id":102,"left_children":[1,-1,-1],"loss_changes":[3.4818943E0,0E0,0E0],"parents":[2147483647,0,0],"right_children":[2,-1,-1],"split_conditions":[-4.7866824E-1,1.7127769E-2,-1.8151216E-2],"split_indices":[5,0,0],"split_type":[0,0,0],"sum_hessian":[5.801146E1,2.4917217E1,3.3094242E1],"tree_param":{"num_deleted":"0","num_feature":"25","num_nodes":"3","size_leaf_vector":"1"}},{"base_weights":[-5.224817E-3,1.6691647E-2,-1.3160948E-2],"categories":[],"categories_nodes":[],"categories_segments":[],"categories_sizes":[],"default_left":[0,0,0],"id":103,"left_children":[1,-1,-1],"loss_changes":[2.5101347E0,0E0,0E0],"parents":[2147483647,0,0],"right_children":[2,-1,-1],"split_conditions":[-4.202568E-1,1.6691647E-2,-1.3160948E-2],"split_indices":[13,0,0],"split_type":[0,0,0],"sum_hessian":[6.196957E1,2.2377607E1,3.959196E1],"tree_param":{"num_deleted":"0","num_feature":"25","num_nodes":"3","size_leaf_vector":"1"}},{"base_weights":[-0E0,9.189024E-2,-2.0076348E-2,3.1258587E-2,-1.396858E-2],"categories":[],"categories_nodes":[],"categories_segments":[],"categories_sizes":[],"default_left":[0,0,0,0,0],"id":104,"left_children":[1,3,-1,-1,-1],"loss_changes":[1.8309121E0,4.956902E0,0E0,0E0,0E0],"parents":[2147483647,0,0,1,1],"right_children":[2,4,-1,-1,-1],"split_conditions":[1.4246652E-1,5.978177E-1,-2.0076348E-2,3.1258587E-2,-1.396858E-2],"split_indices":[20,23,0,0,0],"split_type":[0,0,0,0,0],"sum_hessian":[6.443399E1,4.669914E1,1.7734856E1,2.364571E1,2.3053429E1],"tree_param":{"num_deleted":"0","num_feature":"25","num_nodes":"5","size_leaf_vector":"1"}},{"base_weights":[9.407451E-2,-1.2054813E-2,2.5720552E-1,4.3927606E-2,-0E0],"categories":[],"categories_nodes":[],"categories_segments":[],"categories_sizes":[],"default_left":[0,0,0,0,0],"id":105,"left_children":[1,-1,3,-1,-1],"loss_changes":[2.7742589E0,0E0,3.2780044E0,0E0,0E0],"parents":[2147483647,0,0,2,2],"right_children":[2,-1,4,-1,-1],"split_conditions":[-1.333245E-1,-1.2054813E-2,4.6939895E-1,4.3927606E-2,-0E0],"split_indices":[21,0,22,0,0],"split_type":[0,0,0,0,0],"sum_hessian":[5.9278442E1,1.93313E1,3.994714E1,1.5533908E1,2.4413233E1],"tree_param":{"num_deleted":"0","num_feature":"25","num_nodes":"5","size_leaf_vector":"1"}}]},"name":"gbtree"},"learner_model_param":{"base_score":"3.3361688E-1","boost_from_average":"1","num_class":"0","num_feature":"25","num_target":"1"},"objective":{"name":"binary:logistic","reg_loss_param":{"scale_pos_weight":"1"}}},"version":[2,1,1]}